1.352274E-01
-6.827776E-01
9.030571E-02
6.687612E-02
2.164899E-01
-6.458925E-01
2.378913E-01
6.899128E-01
-2.690488E-02
2.986091E-01
-1.381861E-01
-1.757937E-01
-9.020047E-02
-1.798177E-01
7.232897E-03
-4.120121E-02
2.824682E-02
-7.931670E-02
-2.404918E-02
-2.559426E-01
3.479460E-02
-3.258864E-01
-1.236815E-01
-1.511630E-01
6.009474E-01
-3.606886E-01
-1.566824E-01
-3.104881E-01
-2.324149E-01
-4.170110E-02
-2.037029E-01
-3.105111E-01
-3.348612E-01
-3.899837E-01
-1.509291E-01
-2.745707E-01
-3.931381E-01
-5.553501E-02
-2.747655E-01
-1.364031E-01
2.240569E-02
2.092050E-01
4.217420E-03
-4.095177E-01
5.179891E-02
-9.349569E-02
-3.593604E-01
-1.018358E-01
-2.694357E-01
2.076842E-01
3.343802E-02
-2.152420E-01
-1.281008E-02
-2.489658E-01
-2.038119E-01
-1.302006E-02
6.412885E-03
-1.361618E-01
-9.835898E-02
5.608096E-02
-3.659288E-02
-1.230864E-04
1.332988E-01
-1.641207E-01
2.358616E-01
-2.302787E-01
-2.502697E-01
2.166983E-01
-2.772021E-01
-8.228521E-01
-1.323132E-01
-2.821924E-01
-2.406705E-01
5.006197E-02
8.891903E-02
-2.009118E-01
5.631404E-01
2.781649E-01
2.418052E-03
-1.754630E+00
-8.199108E-02
-1.960243E-01
-1.986864E-01
4.659589E-01
-5.960264E-01
-2.082963E-01
1.640008E-01
-2.460787E-02
-2.161070E-01
1.005409E-01
2.683443E-01
-4.127496E-02
-1.152371E-01
4.950036E-01
-1.303566E-01
-1.305360E-01
1.519813E-01
-2.207659E-01
-2.051547E-01
1.352081E-01
-6.885708E-02
1.058772E+00
-1.217218E-01
-5.675267E-01
-1.691689E-01
1.347652E-01
1.178161E-01
-2.366027E-01
1.236025E-01
-9.846482E-02
-3.457647E-01
-1.548292E-01
1.004999E-01
-4.064904E-01
1.692809E-01
-3.335686E-01
9.122863E-03
-7.601929E-02
-1.469329E-01
2.303949E-02
1.363763E-01
-2.477177E-01
2.701342E-01
7.486747E-02
1.527724E-01
-4.114602E-01
-6.052951E-02
1.651869E-01
-2.309204E-01
4.588101E-01
-1.993299E-01
-1.012007E-01
-1.780784E-01
-1.613499E-01
2.211887E-01
-1.553694E-01
-6.152529E-01
-2.401904E-01
-8.671578E-02
-3.685250E-02
-6.564249E-02
2.974106E-02
-5.819366E-02
-1.544771E-01
-3.739649E-01
-6.890476E-03
7.858437E-01
5.997179E-02
1.151949E-02
6.615071E-02
-9.089264E-02
-6.823972E-02
-1.219311E-01
-3.908663E-01
-2.410472E-01
-6.872675E-01
2.176345E-01
6.542399E-03
-1.199980E-01
-1.751162E-01
6.244711E-02
-1.583780E-01
-2.404468E-01
-1.872666E-01
1.094872E-01
-3.500147E-01
-7.135187E-02
-4.572997E-02
1.474513E-01
-4.741298E-02
-2.030524E-01
-1.943789E-01
3.859000E-02
-2.362005E-01
3.687250E-01
-1.395107E-01
-1.256134E-01
-2.431742E-01
3.848839E-02
-1.875097E-01
-1.249875E-01
-1.345460E-01
-1.026273E+00
1.595383E-02
-1.521333E-01
1.308044E-01
3.535932E-01
4.386822E-02
1.181444E-01
3.033230E-02
-3.179121E-01
-6.139487E-01
-1.301201E-01
-2.023694E-01
5.048856E-02
-3.698741E-01
-2.400937E-01
-1.966592E-01
-2.745779E-01
1.106046E-01
-1.752678E-01
-2.192824E-01
-2.748829E-01
-1.505887E-01
-1.414736E-01
-1.145118E-01
-2.140909E-01
-1.867482E-01
-2.416991E-01
-1.693997E-01
1.571185E-01
-1.973158E-01
-5.539448E-02
-7.295223E-02
3.263184E-02
-2.534000E-01
-2.135758E-01
5.578906E-02
-4.290945E-03
-4.791601E-02
-1.046063E-02
-5.015296E-02
-1.067197E-01
-1.903789E-01
-2.498806E-01
-1.634464E-01
-2.563375E-02
1.649282E-01
-2.957580E-01
-1.870961E-01
-2.222393E-01
-1.485426E-01
-2.361125E-01
5.578898E-02
-4.283865E-01
-2.633348E-01
-2.162174E-02
7.300203E-02
-2.381158E-01
-2.045645E-01
-1.257184E-01
-8.208280E-02
-7.753766E-02
2.287486E-01
6.182510E-02
-6.190176E-02
-3.167768E-01
-1.887236E-01
1.792691E-01
-2.310582E-01
-2.201059E-01
-1.360634E-01
-3.213902E-02
7.115097E-01
-1.740098E-01
-2.625708E-01
-5.025078E-02
-1.642090E-01
-2.235232E-01
-2.916945E-01
6.994054E-02
-2.555292E-01
2.009476E-01
-1.165488E-01
-1.800867E-02
-4.536972E-02
1.320180E-01
-1.916729E-01
-9.107508E-02
7.964036E-02
-8.640948E-01
2.649583E-01
9.233608E-02
-5.280941E-01
-1.800155E-01
7.414904E-02
1.130234E-01
-8.827079E-01
-2.179190E-01
-1.840384E-01
3.465913E-01
-3.433929E-01
4.714769E-01
3.237612E-01
-3.650415E-01
-1.255392E-01
-4.516752E-01
-5.016253E-02
4.506726E-02
-3.104024E-02
-1.053604E-01
-5.546023E-01
-2.013835E-01
6.897628E-02
2.971455E-01
-3.560553E-02
2.849483E-01
-5.468400E-02
-7.747124E-01
-3.677130E-01
-3.052729E-02
1.954240E-01
-1.986352E-02
1.440790E-02
1.080517E-03
6.979397E-02
-2.353719E-01
-5.202409E-02
-1.495073E-01
-1.242810E-01
1.842573E-01
-2.224593E-01
2.293600E-01
1.672859E-01
-5.559407E-02
-2.814241E-01
-8.566093E-02
-2.143784E-01
2.160652E-01
-4.678499E-02
-4.705302E-01
-1.004666E-02
4.658609E-02
1.412271E-01
5.058283E-01
-3.984502E-01
1.796319E-01
-9.846120E-02
-3.633554E-01
2.795984E-02
-1.184756E-01
-3.837765E-01
-1.423462E-01
-8.677181E-02
-2.642629E-01
-1.745640E-01
-3.336935E-01
-2.341788E-01
-2.631156E-01
-1.738003E-01
-2.005421E-01
-1.095328E-02
-1.761067E-01
-1.393359E-01
2.641477E-01
-3.199468E-02
7.502016E-02
-1.480463E-01
1.661654E-03
-2.604254E-01
-7.179583E-02
5.281875E-02
2.888197E-02
-2.562989E-01
-1.762093E-01
-1.246006E-01
-1.174921E-01
-1.919082E-01
1.163502E-01
-3.124475E-01
4.267369E-02
-5.997750E-02
-1.665449E-02
-1.067883E-01
3.089989E-02
-1.397331E-01
-2.322884E-01
-2.435237E-01
-1.920250E-02
-3.967776E-01
-2.245353E-01
-2.488624E-02
-3.030209E-01
1.103577E-01
-2.324065E-01
5.902113E-01
-8.415812E-02
-1.389211E-01
2.286337E-01
8.278153E-01
-2.178488E-01
-6.090774E-01
-6.271021E-02
1.783124E-01
-3.558741E-01
-2.469159E-01
-2.267206E-01
5.643127E-01
-2.348348E-01
-2.405977E-01
-2.621264E-01
5.867598E-01
4.725728E-01
9.685312E-02
-4.305776E-01
-5.244374E-02
1.586523E-01
-1.161891E-01
1.631749E-01
-2.281169E-01
3.980098E-01
-1.403994E-01
3.042725E-01
-3.535975E-01
-3.842692E-01
3.117468E-01
-4.395093E-01
2.275171E-01
-1.056874E-01
2.601971E-02
2.988749E-02
-2.369613E-01
2.943916E-01
-2.871323E-01
-2.021237E-01
-1.464045E-01
-1.937419E-01
4.637351E-01
-4.641936E-01
-7.284568E-01
-1.619008E-01
3.903845E-01
-3.092739E-01
-2.096994E-02
-1.937066E-01
-1.252885E-01
1.789489E-01
1.739071E-01
-2.429407E-02
-4.308446E-02
4.808090E-02
4.576554E-01
-1.107661E+00
-1.381580E+00
-9.627631E-01
-4.811193E-01
-1.455628E+00
-1.872901E-01
-3.507742E-01
-4.455152E-01
6.318627E-01
1.694380E-01
-9.472779E-01
-6.129243E-01
1.762091E-02
2.740424E-01
1.302954E+00
2.268785E-01
-4.487744E-01
-8.715386E-01
-1.737961E-01
-1.415364E-01
-2.739760E+00
-5.516010E-02
-4.818053E-01
-7.336034E-01
5.478544E-01
8.285002E-02
-3.125102E-02
-4.908094E-01
-1.667673E+00
-5.195127E-01
-2.636172E-01
-5.517696E-01
-6.416861E-01
-9.902119E-01
-5.713439E-01
-8.215723E-01
-1.847438E+00
-4.264581E-01
6.941074E-01
-5.757947E-01
-1.129625E-01
-3.282908E-01
-4.713271E-01
-1.300889E+00
-7.131110E-01
-1.828689E-01
-5.927548E-01
-2.110326E-01
-1.524031E-01
-1.006015E+00
-2.638859E-01
4.650533E-01
-1.513271E+00
-2.966536E-01
3.765599E-01
-6.476753E-01
2.874152E-01
-3.824107E-01
-4.325000E-01
2.556329E-02
-1.703639E-01
-5.388652E-03
-3.504185E-01
-1.854500E+00
-1.212130E+00
-1.655085E+00
4.419712E-02
-6.253085E-01
1.145932E-01
-1.083027E-01
5.947395E-01
-6.432654E-01
4.165672E-01
-2.112427E-01
7.157462E-02
-3.260380E-01
-1.221716E+00
-6.848115E-01
-1.090623E+00
-2.343898E-01
-2.815740E-01
-5.258071E-01
-3.602172E-01
-3.768239E-01
-4.325448E-01
-4.407852E-01
7.660758E-03
-7.029027E-01
-5.604411E-01
-7.495196E-01
-1.422785E-01
1.044073E-01
-2.848719E-01
-8.702439E-02
-1.178447E+00
1.216826E-01
-4.009471E-01
-5.501483E-01
-5.217762E-01
-7.276993E-01
-1.423265E+00
-4.480304E-01
-4.055657E-01
-8.736513E-01
5.086986E-01
-5.627019E-01
5.936178E-01
-1.312938E-01
-2.745519E-01
-3.237483E-01
-4.830066E-01
-2.405286E-01
-4.654603E-02
-3.697083E-01
-1.073135E+00
-7.552597E-01
-8.189317E-01
-1.119199E-01
-5.510699E-01
-4.303659E-01
5.841632E-02
-8.762286E-01
-3.017603E-01
7.396312E-01
-3.244909E-01
-2.747277E-01
-7.948865E-01
-1.171332E-01
-1.995412E-01
-1.073340E-01
-1.005116E-04
1.870019E-01
-4.682373E-01
-8.629463E-01
-1.068953E+00
-2.824656E-01
-3.322463E-01
-4.100986E-02
-4.908168E-01
-5.064143E-01
-6.651258E-01
3.822269E-01
9.652080E-03
-4.950672E-01
-4.626021E-01
1.543549E-01
-7.322141E-01
3.960826E-01
-2.118632E-01
-5.826031E-01
-1.131324E+00
-5.789328E-01
1.810437E-01
-8.616464E-01
-5.623762E-01
-2.771646E-01
1.531337E-01
-2.057860E-01
5.580027E-02
-4.333500E-01
-1.437498E+00
-3.016408E-01
-5.709076E-01
1.272388E+00
-2.840981E-01
-4.893112E-01
-3.009278E-01
-1.687437E-01
-5.895865E-01
-7.325624E-02
1.142429E-01
-6.921249E-01
2.995676E-02
3.536087E-01
2.132806E-01
-2.598094E-01
-4.940977E-01
-7.514135E-02
-5.363346E-01
-4.496122E-01
-9.975776E-01
6.652086E-02
-3.709729E-01
1.661728E-01
-8.108375E-02
-6.644270E-01
-3.954157E-01
1.203621E-02
-4.909264E-01
-4.975683E-01
-3.569211E-01
2.875454E-01
2.485196E-01
-1.335170E+00
-1.337321E+00
-5.975855E-01
-3.723641E-01
-4.320931E-01
-1.989887E-01
-2.548356E-01
3.789951E-01
-4.369628E-02
-2.144192E-01
-1.698784E-01
-2.050340E-01
2.093972E-01
-4.451176E-01
-6.466082E-01
4.580830E-02
-2.738526E-01
-7.583698E-01
1.707915E-01
-6.264387E-01
1.266701E-01
-2.138767E-01
-4.901315E-01
1.525625E-02
9.223056E-02
9.044586E-01
-1.948632E-01
-4.235095E-01
-2.715787E-01
2.549046E-02
-2.589899E-02
1.958688E-01
-2.698357E-01
-1.636100E-01
-3.829819E-01
-3.174135E-01
-1.387751E-01
-9.821548E-02
-4.237465E-01
-1.516728E-01
-5.691625E-02
5.216714E-01
-3.085646E-01
-6.674302E-01
1.151256E-02
-5.549914E-01
-3.218781E-01
-2.671011E-01
-3.044564E-02
-1.604763E-01
-5.001989E-01
-8.643859E-02
3.309263E-01
-3.782258E-01
-2.081742E-01
-5.403165E-02
-1.487515E-01
-1.344438E-01
-2.878484E-01
-1.782581E-01
-4.478367E-01
1.375596E-01
-8.998639E-02
-2.406561E-01
-3.438583E-01
-3.415297E-01
-2.256029E-01
-1.709862E-01
-1.119341E+00
-2.574257E-01
-3.511042E-01
-2.173242E-01
-2.342445E-01
2.396346E-01
-2.877160E-01
-2.382800E-01
-3.008684E-01
-1.023738E-01
-2.598203E-01
-5.060964E-01
-1.606602E-01
-3.070604E-01
-1.663328E-01
-2.982357E-01
-3.214994E-01
-3.085123E-01
6.288550E-02
-3.901404E-01
2.499734E-01
2.106144E-02
-7.853856E-01
-2.923777E-01
-2.417927E-01
-3.015231E-01
-2.742427E-01
-3.186850E-01
-8.631897E-01
-5.116196E-01
-6.089987E-01
-1.167668E-01
-5.391007E-01
-3.496498E-01
-1.086806E-01
-3.164348E-01
2.295651E-02
3.247278E-02
1.772525E-01
1.667869E-01
7.820494E-01
-1.253742E-01
-7.520875E-01
-6.876892E-01
-3.075715E-01
-1.264006E+00
-9.908998E-01
-7.104892E-01
7.643909E-01
1.127042E-01
-2.774607E-01
-6.581984E-01
8.242279E-01
-7.274282E-01
-7.684216E-01
-6.548665E-01
-4.928149E-01
4.924019E-01
-2.987960E-01
-1.051685E+00
1.493817E+00
1.126905E-01
-2.222625E-01
-8.839674E-02
1.036896E+00
-3.765996E-01
-6.015227E-01
-2.329123E-01
6.120308E-02
-1.331109E+00
-8.321988E-01
-3.961517E-02
-2.505064E-02
-2.629687E-02
-1.017211E+00
-1.195847E-01
-7.193934E-01
-5.071254E-02
1.164495E+00
8.406335E-01
3.515969E-01
4.796239E-01
-2.923825E-01
1.213560E-01
-3.652727E-01
-1.943986E-01
2.344651E-01
-5.681329E-01
-5.643656E-01
-6.181340E-01
-4.074092E-01
-1.105827E+00
-5.342255E-01
-6.237108E-01
7.110450E-01
3.520158E-01
7.280264E-01
6.255105E-01
4.715539E-01
-1.701891E-01
-3.225645E-01
-1.952739E-01
-3.141497E-01
-1.267611E-01
-1.747426E-01
-3.273033E-01
6.854084E-01
2.421301E-01
-2.401687E-01
8.569105E-02
5.748327E-01
-3.308352E-01
-1.009269E+00
-3.658188E-01
1.310241E-01
5.223612E-01
-8.070825E-02
1.232836E-01
-3.247098E-01
-1.455448E-01
-2.687290E-02
1.253336E-01
3.003516E-02
-3.088373E-01
-1.494512E-01
-1.126347E+00
-4.563776E-01
-3.632456E-01
-4.390365E-01
-3.680479E-02
1.960821E-01
-5.715320E-02
-2.349150E-01
2.791669E-01
1.382218E-01
3.325043E-01
-3.575000E-01
-9.931070E-02
-1.125519E-01
-1.149549E-01
2.707703E-01
9.330286E-01
3.982389E-01
-8.130163E-01
-6.122075E-01
-9.935199E-01
-1.152095E-01
-4.049423E-02
-6.240974E-01
-5.094030E-01
-8.494850E-01
-1.103748E-01
-3.243591E-01
-1.315581E+00
-7.198758E-02
-1.096936E+00
-9.519727E-02
4.105962E-01
1.508639E-01
1.673293E-01
4.582265E-01
-2.680706E-01
1.253070E+00
-1.628408E-01
-9.484983E-01
7.430861E-01
-6.649077E-02
-1.515819E-02
-9.995315E-01
-5.555810E-02
1.577668E+00
-1.119055E-02
6.133447E-01
8.007482E-01
2.209984E-01
-7.744464E-02
5.488978E-01
-1.032723E-01
-8.642758E-02
4.481701E-01
-9.445870E-01
-2.969219E-01
-1.188520E+00
-4.056770E-01
-1.304680E-01
6.775403E-02
9.634982E-01
1.364172E+00
-6.495342E-01
-6.215825E-01
-4.492875E-01
-2.107620E-01
5.853686E-02
-3.099188E-01
-1.265020E-01
-2.197819E-01
4.192120E-01
5.788413E-01
-3.292841E-03
-6.857526E-01
-6.681990E-01
-2.270883E-01
-4.523630E-01
-4.252815E-01
-2.254486E-01
-4.821807E-03
-3.292918E-01
-1.995831E-02
-5.659752E-01
-2.609288E-01
5.015373E-02
-7.684962E-02
4.324181E-01
-4.179587E-01
3.026658E-01
-3.974486E-01
-6.706516E-02
-3.079217E-01
4.354357E-01
-1.945448E-01
4.802051E-01
-2.447931E-01
-5.549961E-01
3.186934E-01
3.993132E-01
2.463359E-01
-1.067674E+00
-2.095864E-01
-5.681851E-01
-2.636901E-01
-8.067444E-01
-1.655301E-01
-7.301064E-01
-5.600966E-01
-9.358179E-02
-6.577503E-01
-2.643568E-01
-2.842330E-01
-2.613330E-01
-2.701962E-01
-2.940130E-01
2.350008E-01
-4.098975E-01
-2.113324E-01
1.093073E-01
-1.057667E-01
-4.786969E-01
6.954854E-02
3.477931E-01
8.641733E-01
-5.733157E-01
-4.153584E-02
-5.242088E-01
-2.974742E-02
-2.752133E-01
-2.559848E-01
-6.836785E-01
-2.461832E-01
-1.923361E-01
-1.488701E+00
-9.088864E-01
1.567151E-01
-2.485789E-01
-6.435464E-01
-2.425291E-01
-2.795471E-01
-6.088317E-01
-2.054462E-01
4.088171E-01
-4.038498E-01
2.602081E-01
-4.551379E-01
-8.769644E-02
-4.609520E-01
-5.409938E-01
-3.294555E-01
-1.169739E-01
1.265623E-01
-2.041025E-01
-4.565429E-01
-9.848878E-02
-6.573902E-02
-6.707630E-02
-2.321181E-01
3.073471E-02
-1.197827E-01
-3.331569E-01
-3.507372E-01
-4.294917E-01
4.312948E-01
-2.599643E-01
-1.648602E+00
-6.643034E-01
-3.746609E-01
2.555112E+00
-1.538036E-01
-1.761319E-01
-2.798346E-01
1.970976E-01
-5.632228E-01
-1.097437E-01
-7.126060E-01
-4.081317E-01
-1.048418E+00
-6.130569E-02
2.252605E-01
-2.218385E-01
-2.262591E-01
-1.110336E-01
-6.935779E-01
-6.988914E-01
2.478982E-01
-1.254885E-01
-3.388045E-01
-2.087935E-01
-1.554058E-01
7.762488E-01
-6.097981E-02
-5.436128E-01
-7.792501E-01
-5.148711E-01
-3.571020E-01
-2.373974E-01
-1.836352E-01
-2.941453E-01
4.250154E-02
1.599752E+00
-3.263746E-02
-1.345047E+00
-3.144110E-01
-1.340014E-01
6.407277E-01
-1.779341E-01
-8.236843E-01
-1.493618E-01
4.466077E-01
-4.278336E-01
-2.250901E-02
6.833314E-02
-4.277053E-01
-4.656576E-02
2.613745E-01
8.272880E-01
1.223869E-01
-2.538497E-01
-6.857981E-01
-5.370335E-01
-4.009780E-02
-5.502519E-01
3.630271E-02
-5.760949E-01
-2.746769E-01
-3.783362E-01
-2.361508E-01
-2.212895E+00
-9.242959E-02
-5.205557E-01
-1.449696E-02
-9.253376E-01
-2.014100E-01
-8.227716E-02
-2.202657E-01
-1.882057E-01
-2.499724E-01
-1.532031E-01
-8.333704E-01
-2.587019E-01
-4.212814E-01
-7.264378E-01
1.404227E-01
1.636521E-01
-1.165129E+00
-4.702133E-01
-6.932608E-01
-8.600714E-01
-3.316943E-01
-2.948190E-01
-1.414908E-01
-6.408722E-01
-4.842427E-01
6.174714E-01
-1.409650E-01
-2.942859E-01
-3.420522E-01
-7.733474E-02
1.840473E-01
-1.222102E-01
-2.331087E-01
-8.508322E-02
-3.317290E-01
-5.333066E-01
8.341572E-03
-9.506553E-01
-1.991607E-01
1.513863E-01
4.287099E-02
-1.239795E-01
-6.299554E-01
-9.359846E-01
-5.280570E-01
-2.919366E-01
1.194136E-01
-2.788319E-01
-3.282788E-01
-1.583681E-01
-1.678527E-01
-5.756138E-01
-1.454473E+00
-4.471840E-01
4.785494E-02
-3.226983E-01
-8.827883E-01
-2.048502E-01
5.895583E-01
2.733823E-01
-2.550305E-01
2.655321E-01
-2.221309E-02
-2.867942E-01
8.215635E-02
-2.839647E-01
-2.852509E-01
-3.309212E-01
-2.303418E-01
-1.679205E-01
2.447831E-02
-2.003336E-01
-1.948540E-01
-3.656596E-01
-2.662969E-01
-3.367637E-01
-2.576947E-01
-3.108076E-01
-2.300402E-01
-2.945007E-01
-4.844730E-01
1.381357E-01
2.096377E-01
1.245645E-01
-8.319231E-01
-2.375451E-01
-9.513737E-04
6.486977E-01
-3.135645E-01
-1.653442E-01
-3.589827E-01
-1.328731E-01
-3.425522E-01
-2.448006E-01
-2.137341E-01
-2.150714E-01
-3.485674E-01
-3.793228E-01
-1.338810E-01
-2.171954E-01
-1.616177E-01
8.946502E-02
-2.223585E-01
-1.777321E-01
-4.112809E-01
-1.662883E-01
-2.383569E-01
-1.823222E-01
-2.158572E-01
-1.185685E-02
-1.391348E-01
-1.335627E-01
3.184164E-02
-3.633471E-01
-1.874719E-01
-2.206907E-01
-1.085620E-01
-2.133480E-01
-8.562977E-02
-1.975244E-01
-2.349642E-01
-1.525457E-01
1.652956E-01
-3.714762E-01
4.231147E-01
-4.260096E-01
-3.507159E-01
-2.403527E-01
-2.080050E-01
-2.233378E-01
-1.164058E-01
-2.222546E-01
1.467360E-01
-4.403919E-01
-9.376444E-02
-1.446177E-01
-2.438292E-01
-2.301047E-01
-3.377972E-02
-5.079600E-02
-8.217523E-01
-4.569136E-01
-4.680147E-01
-6.786004E-01
1.109449E-01
-4.952195E-01
-3.816756E-01
-1.059676E-01
-2.092883E-01
-8.629018E-01
-1.937460E-01
-6.826927E-01
-6.023317E-01
-7.150859E-03
-1.817926E-01
1.479402E-01
-9.871431E-01
-3.900182E-01
-1.149326E-01
-4.394588E-01
-3.141375E-01
-6.006554E-01
-5.089082E-01
-4.265971E-02
-1.571958E+00
-5.404607E-01
-4.149684E-01
-1.864858E-01
-3.526033E-01
-1.025703E-01
-9.454137E-02
-2.456108E-01
-1.674082E-01
-8.529758E-01
8.446991E-02
-4.475393E-02
-2.291537E-01
-3.140335E-01
-2.542498E-03
-7.469537E-03
-1.643798E-01
-4.254460E-01
-6.821228E-01
-5.578330E-01
-5.583575E-01
-4.414327E-01
-2.276761E-01
-6.646299E-01
3.059576E-02
-1.457023E-02
5.530048E-01
-1.760538E-01
3.288279E-01
6.945828E-01
2.195807E-01
-1.021097E+00
1.343499E-01
-1.189022E-01
-3.200635E-01
-3.049494E-01
-3.600144E-01
-8.052886E-01
-3.420363E-02
-1.532268E-01
-5.866336E-01
-4.724190E-01
1.319268E-01
-1.765397E-01
7.229511E-01
4.582141E-01
-7.235431E-02
-7.991925E-02
-2.134809E-01
-3.050940E-01
-3.453415E-01
-1.061366E-01
9.487476E-02
4.926149E-02
1.167587E+00
1.603758E-01
-3.515628E-01
-1.994989E-01
3.622704E-03
-2.571640E-01
-3.583740E-01
3.047970E-01
5.553108E-01
-2.338010E-01
1.013341E-01
-2.685986E-01
3.237270E-01
6.192818E-02
-5.064387E-02
6.872190E-01
-5.724583E-01
-2.508140E-01
6.011264E-01
-4.680078E-01
-2.077987E-01
-2.527754E-01
2.599634E-01
-1.957479E-01
-2.732517E-01
-1.208713E-01
-8.023774E-01
-8.163638E-01
-1.328062E-01
-2.343476E-01
-1.760822E-01
3.097478E-01
-1.088111E+00
2.872220E-01
9.465175E-02
-8.212278E-01
-5.760642E-01
-1.910338E-01
-2.344488E-01
-5.907602E-01
6.373794E-02
-1.000073E+00
-1.202923E-01
7.820284E-01
2.051521E-01
2.463394E-01
-4.075003E-01
5.645315E-01
-5.181499E-01
2.770056E-01
-4.436996E-02
-6.247906E-01
4.253745E-01
-3.345087E-01
-2.156658E-01
4.947701E-01
6.984002E-02
8.954094E-03
6.230618E-01
1.062148E+00
-3.184134E-02
-9.323718E-02
7.428792E-01
1.956007E-01
-5.680410E-01
9.604005E-01
2.184442E-01
-4.044278E-01
3.613532E-01
-8.802899E-01
1.327100E-01
-6.369587E-01
2.767105E-01
-6.003740E-01
8.086274E-01
-4.722550E-01
-1.242321E-01
-1.758544E-01
-1.210689E-01
2.937387E-02
4.728822E-02
2.629762E-01
6.738993E-01
-1.546470E-01
1.162100E-01
4.656867E-01
2.847009E-01
4.798154E-01
5.936437E-01
-3.263066E-02
1.383349E-01
3.014060E-01
-3.177673E-01
-8.815027E-01
-8.075830E-01
-6.504332E-01
-1.265411E+00
-1.021695E+00
-1.153736E+00
-7.405491E-01
-7.031192E-01
6.207907E-01
4.205743E-01
7.798505E-01
-9.516909E-01
-1.429824E+00
-2.076028E-01
7.642707E-01
-6.530544E-01
-1.656259E-01
5.288374E-01
-5.722252E-02
-5.759771E-02
-4.184396E-01
-2.085207E-01
-3.515803E-02
7.158996E-02
8.491340E-02
3.002113E-02
-1.164994E-01
1.839320E-01
2.286195E-01
4.024884E-01
-2.843778E-01
2.332459E-01
-3.746515E-01
-3.431057E-01
6.935854E-02
-5.943997E-01
2.947070E-01
-2.939145E-01
-3.634894E-01
2.069450E-01
1.134459E-01
-3.045618E-01
-2.524563E-02
-1.835059E-01
-1.385791E-01
-4.138399E-01
3.342156E-01
-2.103882E-01
-2.531368E-01
9.474765E-02
-1.884710E-01
2.728663E-01
1.712521E-01
1.671861E-01
3.829350E-01
-8.127601E-02
5.890122E-01
1.573960E-02
-4.946504E-01
-3.814382E-01
-3.470651E-01
-3.305425E-02
-3.690831E-01
2.266942E-01
2.257918E-01
-3.121731E-01
-2.870089E-01
4.618895E-01
-2.053361E-01
-1.526059E-01
2.490105E-01
-2.679036E-01
-2.237655E-01
-4.063286E-01
-2.785471E-01
-1.681136E-01
-2.726374E-01
-2.483225E-01
-3.571250E-01
-1.201166E-01
-2.929180E-01
-1.320299E-01
-1.986093E-01
-2.513428E-01
-1.550593E-02
-1.962165E-01
-1.534460E-01
4.838243E-01
-7.187931E-01
-3.010519E-01
-6.174167E-03
1.894093E-01
-5.064221E-01
-2.926765E-01
-9.899396E-02
8.076448E-02
-2.648248E-01
-2.455113E-01
2.394432E-02
-2.790611E-01
-2.985643E-01
-1.061513E-01
1.727989E-01
-6.231156E-02
1.817565E-02
-2.221220E-01
1.791030E-01
1.243572E-01
-1.300286E-01
4.935673E-02
-3.140436E-01
-5.227101E-01
1.104227E-02
-4.684073E-01
-5.610497E-01
-2.645453E-01
-1.605287E-01
-1.155910E-01
-1.324872E-01
-4.017376E-01
-3.522345E-01
-1.228468E-02
3.105353E-01
-4.082614E-01
-1.261430E-01
4.098971E-01
2.161819E-01
-3.776109E-01
-1.242812E-01
-1.708468E-01
-3.614867E-01
1.933164E-03
-2.195338E-01
-2.345300E-01
3.753544E-02
-1.574575E-01
-1.855805E-01
-4.615284E-01
-4.235623E-01
-2.428863E-01
-2.681569E-01
-5.443862E-04
-4.540243E-01
-4.681151E-01
-4.274350E-02
-4.214664E-01
-1.256363E-01
2.600053E-01
-7.506513E-02
-1.169103E-01
1.326942E-01
-2.125659E-02
-2.127626E-01
-7.676444E-01
2.465438E-01
-2.485069E-01
-3.937104E-01
2.560972E-01
-2.562235E-01
-4.590963E-01
1.067481E-01
1.003452E-01
-2.799114E-01
-6.347769E-02
2.190008E-02
-1.234547E-02
-1.803311E-02
3.504399E-01
-2.059735E-01
-5.779691E-01
4.090528E-01
1.375786E-01
-2.480702E-01
6.132778E-02
-4.708194E-01
6.922022E-01
-3.789401E-01
-2.636196E-01
-8.004206E-02
-1.674214E-01
-3.418780E-01
-2.880462E-01
4.598971E-01
-5.586851E-01
1.196453E-02
-2.237681E-01
-7.962891E-02
-1.870390E-01
-4.460230E-01
-1.927770E-01
-3.097481E-01
-1.536907E-01
-1.452033E-01
-1.333530E-01
-2.693253E-01
-1.944939E-01
-6.011549E-02
7.415514E-02
-2.274837E-01
1.791828E-01
-2.178473E-01
-3.453976E-02
2.624157E-01
-4.818014E-01
-1.187579E-01
-3.748911E-02
2.751745E-01
-3.650974E-02
-2.692507E-01
1.783060E-01
-2.842537E-01
-2.350384E-01
-2.673931E-01
-2.729543E-01
-1.787997E-01
-5.906299E-01
-2.205882E-01
1.729585E-01
-2.799411E-01
-2.244675E-01
-1.895153E-01
-3.717905E-01
-3.043818E-01
-1.641466E-01
3.161221E-01
-3.791709E-01
-2.517170E-01
-2.274255E-01
-2.831972E-01
-3.472421E-01
-2.345630E-01
-6.102098E-02
-1.010978E-01
-2.636412E-01
-3.044074E-01
-2.134212E-01
-1.396080E-01
-2.850655E-01
-3.639250E-01
-3.642311E-01
-4.353073E-01
-3.209445E-01
-2.392409E-01
-2.890863E-01
-2.649080E-01
-2.569899E-01
-6.465603E-02
-1.702169E-01
-1.194837E-01
-3.434587E-01
-2.635364E-01
-2.331321E-01
4.589609E-01
-2.663317E-01
-2.461261E-01
-7.139526E-01
-1.653410E-01
-1.397868E-01
-1.505597E-02
6.457317E-02
-4.396508E-01
-2.865610E-01
-1.731192E-01
-3.408184E-01
-2.413180E-01
-2.825169E-01
-2.896766E-01
-2.809864E-01
-2.777190E-01
-2.135506E-01
-1.095645E-01
-1.015130E-01
-3.165618E-01
-5.487339E-01
-1.499646E-01
-2.966368E-01
-2.410883E-01
-2.468179E-01
-1.449925E-01
-2.541941E-01
6.684028E-02
-1.013364E-02
1.456363E-01
-2.542217E-01
-1.909946E-01
2.719460E-01
-3.859759E-01
-4.249807E-01
-6.731646E-02
-5.417057E-03
-8.105335E-02
1.255356E-01
-1.900189E-01
-1.113210E-02
-3.063420E-01
2.831528E-01
-2.316310E-01
-1.038271E-01
-6.416284E-02
1.397060E-01
3.981313E-02
-2.058587E-01
-2.198212E-02
1.402683E-01
4.072385E-01
-5.138177E-01
-3.127168E-01
-2.286679E-01
-2.627527E-02
-1.984516E-02
-9.948255E-02
-4.007188E-01
-2.798883E-01
-9.886172E-02
-2.106481E-01
2.753137E-01
7.423904E-01
3.614063E-01
9.286031E-02
-5.801349E-01
-5.683106E-01
6.426176E-02
-1.314697E-02
3.662445E-02
1.336737E-01
-5.168431E-01
1.686076E-01
-3.511856E-01
-5.822681E-01
-3.362771E-01
2.242055E-02
-4.205947E-02
-6.113908E-01
-3.035798E-01
-2.826981E-01
-5.068045E-02
2.434582E-01
-2.545998E-01
-4.034891E-02
-1.126452E-01
1.510086E-01
-1.622878E-01
2.234982E-01
-2.488691E-01
-4.467993E-01
-1.417003E-01
1.986664E-01
-2.449928E-01
-1.656172E-01
-1.365957E-01
-2.283962E-01
-2.202439E-01
-5.019283E-01
-2.961437E-01
-1.809936E-01
-2.349346E-01
-2.768348E-01
-3.654485E-01
3.754004E-02
-7.402700E-02
-2.677939E-01
2.355407E-02
-1.200050E-01
-5.173721E-02
3.966720E-01
-2.694473E-01
-4.153200E-02
-2.136940E-01
1.825606E-02
-4.155870E-01
-2.822355E-01
-6.471080E-02
-1.520478E-01
-2.700554E-01
-1.871472E-01
-2.577408E-01
-2.922455E-01
-1.318625E-01
1.740833E-01
1.746445E-01
-1.426421E-01
-7.854458E-02
-6.280595E-01
-8.241273E-02
-3.282744E-01
-3.968261E-01
-1.893233E-01
-3.068301E-01
-7.869146E-02
-1.985415E-01
1.110746E-01
-2.005473E-01
-9.664472E-02
-1.404575E-02
-4.332060E-02
3.105010E-03
1.428574E-01
-2.527783E-01
-6.288400E-02
1.364460E-01
7.717403E-02
-2.511768E-01
3.484316E-01
-1.050670E-01
-2.882464E-01
3.417301E-01
3.176877E-02
2.674741E-01
-1.213219E-01
-7.086599E-01
-1.880401E-01
7.437710E-02
-5.397384E-01
4.628999E-01
-1.335371E-01
1.115105E-01
-7.402505E-02
-8.563518E-02
2.778449E-01
-6.917488E-02
-4.058363E-01
-9.791834E-02
-3.009246E-01
-2.120442E-01
1.254603E-01
-1.231562E-01
1.046723E-02
-1.391459E-01
-2.747894E-01
2.366542E-01
-7.236210E-01
1.427808E-01
-1.208961E-01
3.107405E-02
-3.195561E-01
2.551504E-01
-6.049528E-01
-1.691257E-01
-1.716780E-01
-5.135151E-02
-2.913297E-02
-8.952474E-02
-1.142763E-01
-1.263239E-01
-3.141836E-01
-1.969922E-01
-1.954561E-01
-1.689855E-01
-5.426818E-01
-3.610590E-01
-1.118282E+00
-7.792317E-01
-9.261792E-01
-9.474260E-01
-6.252468E-01
-5.512245E-01
-3.780971E-01
-3.086510E-01
-2.938708E-01
-6.406361E-02
-8.040751E-01
-4.694264E-01
6.380545E-02
7.623080E-01
8.345790E-01
1.487995E+00
9.343219E-01
1.667721E+00
-2.389490E+00
-3.457423E+00
-1.380659E+00
-2.644523E+00
8.065726E+00
-3.598718E+00
-3.117670E+00
-3.324822E+00
-3.830101E+00
-1.358412E-01
-4.239743E-02
-1.550113E-01
-2.345645E-01
-5.409353E-02
4.975082E-02
-1.392199E-01
-2.339683E-01
-9.199005E-02
-2.175382E-02
7.836490E-02
-3.371078E-01
-4.687056E-01
-5.565953E-02
-1.345674E-01
-2.463774E-01
-2.132352E-01
-3.586797E-01
7.514776E-02
-3.942190E-01
-3.073234E-01
-2.563037E-01
2.093342E-02
-3.161737E-01
-6.598070E-02
-6.346096E-02
-1.508809E-01
-2.558705E-01
-1.119611E-01
-3.550613E-01
-2.694074E-01
-1.970186E-01
-3.014330E-01
-4.821609E-02
-2.398150E-02
-4.774530E-02
-2.288739E-02
5.887997E-03
-3.608428E-02
-2.113199E-02
-2.481999E-01
-2.611359E-01
-2.223764E-01
-1.236703E-01
-3.407963E-01
-7.920973E-02
-2.705953E-01
-1.484022E-01
-2.886519E-01
5.648425E-02
-1.875996E-01
-1.815845E-01
-2.004750E-01
-3.447255E-01
-1.736021E-01
-1.942547E-01
-2.452190E-01
-4.141612E-01
-3.675599E-01
-1.723204E-01
-2.768137E-01
-2.252312E-01
-3.903723E-01
-1.656912E-01
-2.153634E-02
-3.160278E-01
6.192378E-02
1.508353E-01
-5.470729E-02
-1.153698E-01
-2.323235E-01
-3.243185E-02
-3.439669E-01
-6.095791E-02
-2.153430E-01
-4.227896E-01
-4.721967E-02
-2.758531E-02
-1.233836E-01
-3.721019E-01
-2.177381E-01
-2.702277E-01
-3.348058E-01
-9.393551E-02
-1.000973E-01
-1.719066E-01
-1.764650E-01
-2.108756E-01
6.764077E-03
-2.220946E-01
-3.336937E-01
-2.068365E-01
-1.324963E-01
1.414772E-01
-1.031701E-01
-7.079926E-03
-4.472727E-02
-3.292794E-01
-2.819311E-01
-2.611682E-01
-7.822156E-02
1.063515E-01
-2.010583E-01
-2.415006E-01
-2.838997E-01
3.164281E-02
-5.067480E-01
-1.438318E-01
2.060293E-02
-1.035850E-01
-7.343034E-02
-1.021485E-01
-1.972103E-01
2.557414E-03
-2.457183E-01
-9.625783E-03
-1.026916E-01
-2.193452E-01
6.155617E-02
-2.489909E-01
-1.063218E-01
-1.082638E-02
5.365641E-03
1.602494E-02
-1.784988E-01
-2.288630E-01
-1.873167E-01
-1.811757E-01
-3.127987E-01
9.053313E-02
-4.824367E-02
-3.157910E-01
2.318607E-02
4.157638E-02
-1.263516E-01
-3.158196E-01
-2.191226E-01
-3.574997E-01
-2.913048E-01
-2.020172E-01
-7.706337E-02
-2.278916E-01
-8.019604E-02
-2.502543E-01
-2.450379E-01
-3.471867E-01
-9.788051E-02
-8.935772E-02
-5.708291E-02
9.928057E-02
-2.481191E-01
-2.630566E-01
-1.376842E-01
1.033426E-01
-1.808672E-01
8.920583E-02
-1.885345E-01
-1.478379E-01
-2.763369E-01
-3.299718E-01
-4.154258E-02
-3.712818E-01
-1.465139E-01
-2.652144E-01
-9.051018E-02
-1.993544E-01
8.762313E-02
6.942782E-02
-5.026163E-01
-1.346696E-01
-3.515661E-01
-3.851416E-01
-9.574762E-02
-1.109966E-01
5.896738E-02
-4.109277E-01
1.604359E-01
-1.448987E-01
-3.434201E-01
-1.052255E-01
-1.700110E-01
-1.027998E-01
-1.227368E-01
-7.276429E-02
-2.344395E-01
-2.017685E-01
-2.200544E-01
-4.945453E-01
-1.807649E-01
-4.024418E-01
-4.917717E-01
-1.312917E-01
-4.023522E-01
-2.492148E-01
-3.048823E-01
-2.721417E-01
-2.478785E-01
-3.108589E-01
-4.004667E-01
-5.144755E-01
-2.368488E-01
-3.868837E-01
-4.886535E-01
-3.429897E-01
-2.384128E-01
-2.348022E-01
-1.394581E-01
-1.507718E-01
-3.904216E-01
-5.548941E-01
-2.061392E-01
-4.790331E-01
-4.047886E-01
-2.504410E-01
-2.338861E-01
-2.322706E-01
-2.533600E-01
1.730753E-02
-2.337625E-01
-1.754886E-01
-2.570616E-01
-2.492309E-01
-1.747095E-01
-3.869633E-01
-3.547107E-01
-4.141749E-01
-2.275848E-01
-2.332197E-01
-4.547039E-01
-3.429490E-01
-3.562359E-01
-3.811448E-01
-3.274201E-01
-4.126026E-01
-3.345519E-02
-3.357435E-01
-2.292086E-01
-3.189083E-01
-2.732804E-01
-1.987207E-01
-3.838014E-01
-4.667924E-01
-3.002720E-01
-4.587447E-01
-3.198208E-01
-3.738865E-01
-3.404620E-01
-3.453467E-01
-1.974587E-01
-3.089317E-01
-2.946306E-01
-3.333201E-01
-2.458545E-01
-1.827115E-01
-2.759961E-01
-1.576343E-01
-3.109977E-01
-2.642218E-01
-3.439633E-01
-3.141557E-01
-5.892456E-01
-3.341269E-01
-1.222441E-01
-3.293799E-01
-3.096256E-01
-3.696636E-01
-1.921300E-01
-2.461375E-01
-2.923725E-01
-3.712775E-01
9.403594E-02
-7.457178E-02
-1.444616E-01
-9.345235E-02
-8.825845E-02
-3.983833E-01
-4.747580E-01
-1.356433E-01
-3.263492E-01
-2.484597E-01
5.735491E-02
-8.698737E-02
-7.826898E-03
-4.155103E-02
2.087714E-01
-2.404979E-01
-1.442117E-01
-3.512678E-01
-1.512848E-01
-3.008518E-01
-4.257758E-01
-2.550055E-01
-5.762405E-02
-8.311851E-02
1.073775E-01
-1.568495E-01
-1.733011E-01
-1.318958E-01
8.883619E-02
-2.380186E-01
-3.638221E-01
-1.601748E-01
-3.921059E-01
-4.946521E-02
-1.087833E-01
-1.200664E-01
-4.456857E-02
-2.687897E-01
6.692884E-02
-8.788418E-03
1.842765E-02
-9.092607E-02
-2.961540E-01
-2.112394E-01
-3.057194E-01
-3.575939E-01
-2.564708E-01
-2.940235E-01
-9.030420E-02
-2.821154E-01
5.028320E-02
-2.543120E-01
-8.594376E-02
-2.742838E-01
-1.300809E-01
-2.442978E-02
3.072298E-03
-2.510847E-01
-1.052970E-01
-2.085820E-01
-1.499451E-01
-1.466751E-01
-2.473169E-01
-2.958970E-01
-3.515372E-01
-3.035726E-01
-3.051983E-01
-2.886193E-01
-1.917296E-01
-2.815306E-01
-3.385781E-01
-1.641315E-01
-4.425089E-01
-3.240278E-01
-9.556457E-02
-3.723730E-01
-2.818176E-01
-3.393524E-01
-6.736053E-02
-1.881221E-01
-3.962803E-01
-2.853322E-01
-2.593299E-01
-2.941607E-01
-3.892616E-01
-1.515146E-01
-2.133916E-01
-3.862847E-01
-2.415763E-01
-2.867926E-01
-4.151251E-01
-3.209271E-01
-1.975932E-01
-1.661278E-01
-2.890379E-01
-1.425819E-01
-3.095865E-01
-2.663203E-01
-2.047660E-01
-2.192210E-01
-2.659278E-01
-4.734265E-01
-2.254684E-01
-8.434594E-02
-1.377680E-01
-1.047413E-01
-1.844816E-01
-3.487768E-01
-8.798492E-02
-4.090604E-03
7.502665E-03
-5.091770E-02
-1.537325E-01
5.460729E-02
1.021384E-01
-3.235214E-01
-5.873970E-01
-2.404032E-01
-2.439941E-01
-2.102197E-01
-9.133055E-02
1.486676E-01
-1.364778E-01
-2.062193E-01
-1.768184E-01
-2.963479E-01
-1.769814E-01
-2.758826E-01
-3.040304E-01
-8.151329E-02
-3.764661E-01
-4.218726E-01
-5.820667E-02
-9.725951E-02
-3.579246E-02
-1.643844E-01
1.279713E-01
-1.254069E-01
-7.536831E-02
-3.398262E-01
-3.174704E-02
-1.129095E-01
-3.123366E-01
-6.790313E-02
-4.803931E-02
-1.853155E-02
2.315826E-02
-2.463776E-01
-2.583797E-01
-3.425238E-01
-1.368608E-01
6.377059E-02
-7.384199E-02
3.724017E-02
9.489754E-03
-3.935557E+00
-3.288144E+00
-2.595198E+00
-2.326067E+00
-2.294465E+00
-2.875369E+00
-3.413858E+00
7.261854E+00
-6.588980E+00
-4.857563E+00
8.152893E+00
-5.573844E+00
9.324169E+00
-5.506182E+00
-6.161850E+00
-4.111647E+00
-3.469913E+00
-7.414072E+00
8.175136E+00
-4.997943E+00
7.649630E+00
-6.253308E+00
-5.305915E+00
-4.906354E+00
1.957424E-01
-4.463952E-01
-6.029069E-01
-1.422816E-01
-5.368313E-01
-4.155433E-01
2.999903E-01
-7.541166E-02
-6.327831E-02
-1.305026E-01
-1.079190E-01
6.853671E-01
-1.446785E-01
-4.672819E-01
1.280834E+00
9.046500E-01
5.121305E-02
-1.638579E+00
1.335098E-01
-9.731959E-03
-3.898946E-02
5.881636E-02
-6.549889E-02
-6.774326E-01
-4.179510E-01
7.042559E-03
-2.256196E-01
-1.136799E-01
7.620438E-02
-3.085121E-01
-5.450097E-01
-1.665179E-01
-4.976643E-01
-3.115363E-01
6.681161E-01
5.250943E-01
-4.448728E-01
7.198938E-02
-7.937420E-01
-1.502177E-01
-6.928585E-02
3.042174E-01
5.127804E-01
9.548079E-02
-2.432989E-01
-4.706609E-01
-1.152682E-01
-7.670342E-01
-5.797613E-01
-2.873115E-01
2.301347E-01
-3.970854E-01
-6.300944E-01
9.186649E-01
1.751130E-01
-3.023115E-01
-6.387545E-01
-3.311033E-01
-5.132702E-01
5.039386E-01
5.169436E-01
-5.550087E-02
7.413745E-02
-2.799201E-01
5.528124E-01
1.086493E-01
4.282769E-02
-2.089558E-01
-3.975937E-02
-2.379353E-01
2.051782E-01
2.201896E-01
2.435606E-01
-1.428513E-01
2.350533E-01
-1.555191E-01
1.973301E-01
-1.073737E-01
2.014511E-01
8.587476E-02
-1.454006E-01
-9.150318E-02
1.339614E-01
-4.581607E-01
-2.983485E-01
-1.671630E-01
-2.332390E-01
9.957927E-03
-1.158398E+00
2.795392E-02
-3.276908E-01
-2.246841E-01
-2.082391E-01
-5.235695E-02
5.184840E-02
-2.904479E-01
3.136388E-01
9.737341E-02
-3.028410E-01
-2.314381E-01
8.002152E-02
2.126843E-01
2.222654E-01
-1.036276E-01
6.975024E-01
-6.019274E-01
-6.880477E-01
-3.077611E-01
-2.550595E-01
4.216027E-01
1.361756E+00
-6.406012E-01
-4.824885E-01
2.522542E-01
-6.292627E-01
6.847083E-01
7.281048E-02
-2.652799E-01
-5.595814E-01
-3.055602E-01
-1.315322E-03
3.512570E-02
-1.375776E-02
3.973760E-01
1.192421E+00
-2.800146E-01
-6.642271E-02
-5.793157E-01
-8.776653E-01
-2.899048E-01
-7.316296E-01
6.387272E-01
-8.727373E-02
8.581860E-01
-1.145407E-01
4.067143E-01
-3.919478E-01
-3.356471E-01
-2.413651E-01
-4.880021E-01
-6.073035E-01
5.834822E-02
-8.109135E-01
3.870070E-01
-1.617897E-02
-2.036800E-01
-7.125657E-01
-2.859247E-01
-2.860578E-01
-1.201567E-01
2.643104E-01
-3.500128E-01
-3.146956E-01
-3.630782E-01
-8.177635E-01
-3.440796E-01
-3.225881E-01
-3.105283E-01
-5.294675E-01
-4.416433E-01
-4.326877E-01
1.990263E-02
-1.442958E+00
6.990396E-01
-2.086453E-01
5.966084E-01
-4.019400E-01
1.606171E-01
1.956328E-01
-4.477902E-01
-9.075034E-03
-9.505099E-02
-2.583075E-01
-2.231125E-01
-3.590546E-01
-7.746322E-01
-3.369740E-02
6.275182E-01
-8.297762E-01
-5.335261E-01
-2.593546E-01
-3.170366E-01
-6.494284E-01
-2.938151E-01
-4.747809E-01
-3.773832E-01
1.140659E-01
-2.566314E-01
-9.828616E-02
-6.218065E-02
-5.314825E-01
-5.560167E-01
1.557765E+00
-1.008252E-01
-2.548290E-01
-5.722246E-01
-1.717315E-01
-3.202072E-01
-2.755506E-01
-1.933058E-01
-4.134231E-01
8.388027E-02
-2.893605E-01
2.305542E-01
-2.275251E-01
-3.036917E-01
-3.254438E-01
-2.638492E-01
-2.872227E-01
-4.684258E-01
-2.071759E-01
-1.770710E-01
-3.869454E-01
-4.230807E-01
-1.619009E-01
-1.746229E-01
-3.410632E-01
-4.320452E-02
-2.681901E-01
5.699099E-01
-5.181768E-01
-1.290318E-01
-2.694143E-01
-2.284068E-01
-5.566422E-01
-3.155199E-01
-9.136775E-02
-9.198983E-01
-5.102941E-01
-1.432992E-01
-3.664387E-01
5.501108E-02
-2.308802E-01
-1.397652E-01
-3.149334E-01
-2.122722E-01
3.755537E-01
-7.023269E-01
-3.877200E-02
-2.625832E-01
-2.826108E-01
-3.893666E-01
-3.413438E-01
-2.607772E-01
6.343804E-01
-3.110446E-01
-2.109803E-01
-3.437583E-01
3.166632E-01
-1.760871E-01
-5.091067E-01
-2.554232E-01
-4.225788E-01
-4.915352E-01
-2.520191E-01
-9.460686E-02
-2.481649E-01
-1.393783E-01
2.175916E-01
-2.494182E-01
-2.106200E-01
-2.363477E-01
-2.776244E-01
-3.832915E-01
-5.534685E-01
6.354087E-01
2.907718E-01
-3.367536E-01
-2.922031E-01
-2.933341E-01
-2.193638E-01
-2.736705E-01
-1.179404E-01
-3.676015E-01
-6.279879E-02
-3.534864E-01
1.901866E-01
-1.412392E-02
-2.080537E-01
-4.011391E-01
5.389835E-01
-5.146451E-01
-6.086236E-01
-1.534871E+00
-4.514808E-01
-2.372196E-01
3.440556E-01
-5.162366E-01
-2.862341E-01
7.975954E-01
6.059898E-01
-4.383397E-01
-3.571728E-01
1.691944E-01
7.972464E-01
1.018605E+00
-8.517580E-01
-7.325949E-02
-2.473792E-01
-5.387032E-01
-9.931737E-01
-2.922726E-01
-7.966317E-01
-8.088583E-01
2.642363E-01
-4.148548E-01
-1.431016E-01
-9.539555E-01
1.346049E-01
3.393549E-01
-8.624774E-01
5.848524E-02
1.146686E+00
-4.752435E-01
3.233383E-01
-2.130300E-02
-5.807437E-01
-4.167932E-01
4.479352E-02
1.583289E-01
3.415206E-01
-4.691975E-01
-2.158479E-01
-7.376886E-01
-6.145182E-01
-5.934237E-01
-2.657929E-01
-8.057189E-02
-7.051058E-01
-2.201434E-01
5.276937E-01
4.228412E-03
-5.115221E-01
-6.227822E-01
-9.536082E-01
-8.915697E-02
4.001166E-01
-4.878855E-01
5.883479E-02
-5.054394E-01
-5.034113E-01
-1.558087E+00
-8.485938E-01
-3.076267E-01
9.306480E-02
2.944464E-01
4.859441E-02
-1.922117E-01
-5.013676E-01
-4.820345E-01
-4.676431E-01
-2.436146E-01
-1.967438E-01
-7.590291E-01
-1.224780E-01
-2.141572E-01
-1.964418E-01
-2.075866E-01
-1.500698E-01
-1.666353E-01
-1.924205E-01
-1.455914E-01
-5.954230E-01
5.232833E-02
-1.485291E-01
-1.038285E-01
-3.922053E-02
-2.774069E-01
-1.916456E-01
-1.849661E-01
-2.215620E-01
-6.170897E-02
-2.981197E-01
-4.020516E-01
-4.296054E-01
-6.462555E-01
-3.392974E-01
-9.127023E-01
7.158248E-02
-6.927426E-01
-7.160553E-01
-4.422232E-03
-8.024636E-02
-2.704153E-01
-6.080453E-01
2.001211E+00
1.157294E+00
-2.652176E-01
-6.002655E-01
1.691856E-01
-1.627777E+00
-2.800482E-01
-3.788686E-01
-1.907735E-01
6.791080E-01
-3.681992E-01
-1.868898E-01
2.545562E-01
-1.431236E-01
2.209326E-01
-3.890220E-01
-7.733651E-01
-8.468767E-01
-2.224924E-01
1.980912E-01
-1.016637E-01
2.240538E+00
-5.224271E-01
4.660431E-01
4.798643E-01
1.342058E-01
-6.891437E-01
-7.261126E-01
7.490695E-02
1.946756E-01
-6.254535E-01
1.683734E-01
-1.405044E-01
3.106482E-01
-2.565121E-01
-5.243928E-01
-8.217335E-02
5.494968E-01
-1.679177E+00
1.383641E-01
4.916877E-01
-8.372749E-01
3.753195E-02
-9.101213E-01
-4.522026E-01
1.714881E+00
1.358814E-02
3.292638E-01
-9.018987E-01
-5.455915E-01
3.764289E-01
-2.084111E-01
-3.380255E-01
-2.879797E-01
1.963125E-02
-1.314281E-02
2.533274E-01
-1.739825E+00
-9.127754E-01
1.605926E-01
-5.696610E-01
-9.273519E-01
-1.135867E-01
-1.921360E-01
1.572651E-01
-4.729838E-02
-6.867232E-01
-2.735120E-01
1.816548E-03
-1.092686E-01
-2.640859E-01
1.666921E-02
-3.270073E-01
9.393629E-01
-5.831743E-01
9.664378E-02
3.741873E-01
-9.315665E-01
-1.063559E+00
-3.493212E-01
2.012497E-01
6.558514E-01
-2.976373E-02
2.197441E-01
-1.912525E-01
-4.614408E-02
-3.559758E-01
-2.554206E-01
2.955516E-02
2.150097E-01
3.596284E-01
-1.483117E-01
-1.078796E-01
8.215423E-01
7.566305E-03
-3.435374E-01
-1.938114E-01
-6.737239E-02
-3.240930E-01
-2.595508E-01
1.407788E+00
-4.420840E-01
1.204061E-01
-3.795356E-01
-2.559484E-01
9.825261E-02
-3.071912E-01
-4.011692E-01
1.753887E-01
-4.342418E-02
-6.058301E-01
-2.918170E-01
1.021614E-01
-4.693719E-01
-2.034890E-01
-3.927427E-01
5.679592E-02
4.490142E-01
6.805865E-01
-7.146060E-01
5.966704E-02
-2.675739E-01
5.904142E-01
-4.845760E-01
-1.444264E-01
6.792770E-02
-4.839710E-01
-4.579121E-01
-3.265250E-01
-3.375838E-02
-5.296081E-01
-1.588681E-01
-4.167375E-01
2.487784E-01
-4.993748E-01
7.120773E-01
-1.636568E-01
-2.675528E-01
2.232096E-01
-2.525896E-01
-2.311680E-01
-2.555467E-02
-3.474580E-01
-6.109861E-01
-3.277798E-01
-2.042852E-01
4.222650E-02
-1.584801E-02
-9.751252E-03
-2.452380E-01
-2.895368E-01
7.434749E-04
-2.200692E-01
8.075775E-02
5.962631E-02
-6.175415E-02
-2.139524E-01
1.084913E+00
-2.643399E-01
-2.604437E-01
-4.292970E-01
4.483097E-01
-3.459000E-01
-1.990306E-01
1.068141E-01
-2.478911E-01
-2.618161E-01
1.165795E-01
-3.995804E-01
-2.393539E-01
4.242786E-01
-3.296411E-01
-2.891173E-01
-3.306876E-01
1.463890E-01
6.794550E-02
1.586132E-01
-2.285862E-01
-4.661626E-01
-2.433844E-01
7.809843E-04
-2.861016E-01
-2.569381E-01
-1.455453E-02
9.001551E-03
9.334787E-02
-2.704142E-01
-7.987396E-01
-5.027531E-01
-3.253127E-01
9.124875E-02
-8.973727E-02
-6.627699E-02
-2.543066E-01
-9.236983E-02
-3.592351E-01
-6.897232E-02
3.643853E-01
-1.673544E-01
-2.757207E-02
-1.009582E-01
-2.926400E-01
-6.544205E-01
-4.834645E-01
2.012357E-01
-3.454929E-01
-1.855939E-01
1.767817E-01
-1.646816E-01
-6.775683E-02
-2.268730E-01
-7.177084E-02
-2.367664E-01
8.889728E-01
-2.722292E-01
5.568201E-04
-5.556343E-01
-2.173440E-01
8.105042E-02
-1.339336E-01
-5.697175E-01
-2.844736E-01
-3.162267E-01
5.313347E-03
1.812330E-01
-2.552941E-01
-4.704170E-02
4.403269E-02
-3.037655E-02
-2.034238E-01
8.222332E-01
3.103877E-02
3.540609E-01
-8.525577E-01
-1.869116E-01
-4.377061E-02
-8.718888E-01
-3.649582E-01
-5.292652E-01
1.716773E-01
-6.007282E-01
3.302358E-01
-4.210613E-01
-2.433346E-01
7.340924E-02
-1.098949E-01
-3.789424E-01
-2.036588E-02
-4.279534E-01
-2.742831E-01
-5.043567E-02
4.931008E-02
-6.307046E-01
9.402216E-03
-1.084265E-01
-2.642046E-01
-4.799485E-01
4.548049E-01
7.029360E-01
-3.370418E-01
4.281670E-02
-2.031810E-01
-1.218579E-01
-2.138629E-01
-1.525714E-01
-3.545139E-01
-2.335809E-01
1.143272E-01
-2.037189E-01
-8.706850E-02
-1.495137E-02
-2.449145E-01
9.417311E-02
-4.950882E-01
-3.026373E-01
3.149193E-03
-2.277907E-01
-1.395855E-01
-3.279351E-01
-2.392815E-01
-3.012669E-01
-3.938080E-01
-2.634972E-01
-1.441232E-01
-5.251335E-02
-2.234124E-01
-2.525856E-01
-1.246728E-01
-3.093076E-01
-2.189109E-01
-6.109777E-01
-3.958466E-02
-2.700187E-01
-2.647381E-01
1.679116E-01
-3.815013E-01
-1.792610E-01
-2.881209E-01
1.509232E-01
-2.493317E-01
-2.184274E-01
1.844512E-01
-3.890607E-01
-1.257469E-01
2.886803E-05
-1.128245E-01
-8.976332E-02
-2.610627E-01
-3.016048E-01
-2.954532E-01
-8.032898E-02
-5.497081E-01
-2.220648E-01
-2.285837E-01
-1.125954E-01
-2.767815E-01
-2.487913E-01
-9.864326E-02
-1.463170E-01
-2.162001E-01
-1.520892E-01
-1.501426E-01
5.261747E-03
-2.181709E-01
-2.400833E-01
-2.214522E-01
-1.092848E-01
-2.740635E-01
-1.433738E-01
2.430448E-02
-2.668968E-01
9.763592E-03
4.532871E-01
-2.089014E-01
-2.598961E-01
-2.466590E-01
-2.565073E-01
-1.086125E-01
1.165701E-01
-7.253027E-02
-1.866368E-01
-2.859250E-01
-2.486038E-01
-2.922865E-01
-3.024160E-01
-3.116629E-01
-3.579113E-02
-2.572851E-01
3.577057E-02
-2.906304E-01
1.328491E-03
-1.360926E-01
-9.915680E-02
-1.393529E-01
-1.536820E-01
-2.790460E-01
-3.731340E-01
-7.337262E-01
3.792255E-01
-8.282163E-01
-2.738980E-01
-6.830377E-02
-2.301601E-01
-3.174838E-01
-1.456378E-01
-9.465032E-01
4.967141E-01
1.471626E-01
3.728624E-01
-5.560246E-02
-5.767732E-01
2.556090E-01
1.707232E-02
-9.371742E-02
-5.104934E-01
-5.963636E-02
-3.855375E-01
-4.461777E-01
-5.021854E-01
-1.522054E-01
-2.372427E-01
-3.370406E-01
-2.194000E-01
-9.916899E-01
-6.152837E-01
-1.741159E-01
-2.534556E-01
-3.156065E-01
3.213960E-01
-2.898621E-02
-1.768303E-01
-5.392155E-01
5.916881E-01
-6.223520E-02
-1.671630E-01
-2.133639E-01
6.719903E-02
2.600715E-01
9.310201E-02
2.137109E-02
-2.541223E-01
-5.473872E-01
2.191764E-01
-2.635178E-01
-3.634055E-01
-3.272016E-01
-2.118385E-01
-4.262354E-02
-5.575552E-01
1.137570E+00
-3.570034E-01
-2.363823E-01
1.251108E-01
-9.787473E-02
8.285400E-02
3.244770E-01
-1.230597E-01
-2.342299E-01
2.314208E-01
1.120589E-01
-1.399896E-01
-2.366525E-01
5.253210E-02
5.307224E-02
-4.247106E-01
-2.372187E-01
-2.231324E-01
-5.618762E-01
3.102688E-01
-1.892752E-01
1.896072E-01
-1.725631E-01
-8.963884E-02
-7.983821E-02
-4.794497E-01
-1.319401E-01
-1.182926E-01
-2.546293E-01
-1.777404E-01
-3.994405E-02
-2.544180E-01
-2.626913E-01
-1.318726E-01
-4.304599E-01
-6.229504E-02
-2.245957E-01
-2.308813E-01
-1.901556E-01
-4.167748E-02
-1.158921E-01
-2.783252E-01
-5.352938E-01
-3.218283E-01
-2.948441E-01
-6.580116E-01
-1.685369E-01
-3.067746E-01
-2.437838E-01
-5.288961E-01
-5.296881E-01
-2.193455E-01
-2.564740E-01
-2.071688E-01
-8.482847E-01
3.747354E-01
-3.756973E-01
1.448527E-01
-4.906898E-01
-5.786431E-01
1.899911E-01
-2.574997E-01
6.271374E-01
-1.952126E-01
2.313177E-01
3.866622E-01
5.862663E-01
9.574936E-01
2.260655E-01
-4.657548E-02
1.609190E-01
-3.264143E-01
-5.704090E-02
-7.470318E-02
-5.232588E-02
7.857475E-02
-1.391346E-01
-5.048781E-01
-1.576962E-01
2.848981E-01
-3.690940E-02
-3.932243E-01
-1.373426E-01
-1.995062E-02
-2.883510E-01
-2.545175E-01
-1.286990E-01
1.086378E-01
3.147030E-01
1.767845E-01
2.050074E-01
4.122337E-01
1.624938E-01
-4.882798E-01
-5.883299E-01
-3.425758E-01
-1.391886E-02
3.219447E-01
-6.391467E-01
1.666076E-01
3.024252E-01
-1.588503E-01
-1.685112E-01
3.009546E-02
-2.443921E-01
4.580783E-01
-4.651005E-02
-7.637027E-01
3.020933E-01
2.460482E-01
-3.426284E-01
-5.113144E-01
2.488812E-01
-3.893387E-01
-7.327669E-01
-5.485550E-02
-8.300978E-01
-4.432207E-01
2.859600E-01
3.523080E-01
-2.205539E-01
-1.018356E+00
5.189036E-01
-2.416096E-01
-9.041691E-01
1.177697E-01
5.473087E-01
-1.137849E+00
-5.860108E-01
1.949278E-01
-6.308023E-02
-4.494894E-01
1.408141E-01
3.212430E-01
8.641349E-02
-2.041306E-01
-2.313353E-01
2.271305E-01
-1.122898E-01
-4.267950E-01
1.340216E-01
3.138635E-01
-2.281233E-01
1.201984E-01
-3.621175E-01
-1.324222E-01
6.099637E-02
-7.992937E-02
4.827550E-03
3.347156E-01
8.786484E-02
8.473180E-01
-8.643377E-02
-1.362897E-01
-1.027472E-01
-2.694550E-01
-9.596817E-02
1.663024E-01
8.037863E-02
7.726769E-02
-2.927884E-01
-3.683927E-01
-5.559267E-01
4.271573E-01
-2.442619E-02
-3.224153E-01
-4.639658E-01
-5.283327E-01
4.524782E-01
-1.558930E-01
-4.680460E-02
-3.154125E-01
3.492699E-01
-1.225409E-01
-8.433064E-02
-3.411031E-01
1.829991E-01
-3.170355E-01
4.156418E-01
-3.687086E-01
-2.793903E-01
-1.527338E-01
-3.661041E-01
-8.040869E-02
-3.081725E-02
1.291426E-01
-1.872472E-01
-2.309908E-01
-1.707958E-01
1.042401E-01
-6.673711E-02
-1.405843E-01
8.448499E-02
-1.216032E-02
1.061541E-01
1.419560E-01
1.926762E-01
-2.907258E-01
-6.159023E-01
-2.324572E-01
-4.338172E-01
1.494626E+00
7.371826E-02
-3.517458E-01
3.079849E-01
-1.418624E-01
-1.888779E-01
2.317991E-01
5.869430E-01
-7.423428E-02
3.325227E-01
-2.589094E-01
-1.359048E-01
-8.465088E-01
-1.116652E-01
-1.538772E-01
-1.976421E-01
1.972458E-01
-2.859558E-01
-2.244519E-01
-2.464874E-01
8.346915E-02
-2.051721E-01
3.193644E-01
-3.597738E-01
-1.424525E-01
3.716721E-02
-3.348176E-01
-8.393493E-01
-4.500912E-01
-5.188311E-01
-1.664571E-01
-1.802228E-01
-1.514921E-01
1.554196E-02
-3.893612E-01
-1.426606E-01
-2.332671E-01
-2.814044E-01
-9.645778E-02
-3.107408E-01
-3.068649E-01
4.469213E-02
-1.081295E-01
-1.647754E-01
-1.574658E-03
-4.438613E-02
-6.221413E-01
-4.317906E-01
3.932566E-01
-1.496346E-01
-3.361026E-01
-2.415143E-01
-2.643755E-01
-5.755909E-01
7.917534E-01
-1.358291E-01
-3.158372E-01
-1.479381E-01
-1.691586E-01
1.387016E-01
4.526748E-01
-2.317143E-01
-2.696700E-01
-2.014728E-01
-6.037417E-01
-2.233849E-01
3.256476E-02
-3.573330E-01
3.342316E-01
-4.013747E-01
-1.472832E-01
3.663487E-01
-2.208277E-01
-5.036834E-01
2.373693E-01
-2.005192E-01
4.164358E-02
4.328809E-02
-5.528642E-01
-5.113786E-01
-5.486968E-01
3.371234E-01
1.680019E-01
-2.691754E-01
5.593412E-01
5.249752E-01
-6.844492E-01
-5.350274E-02
1.584240E-01
-1.326615E-01
-2.595725E-01
-4.014583E-02
-3.004545E-01
-2.158930E-01
-1.389812E-01
-2.077591E-01
-1.969794E-01
2.893912E-01
-1.421936E-01
-1.102607E-02
5.381287E-02
6.688830E-02
-3.208439E-01
-1.105200E-02
-2.248856E-01
-3.280884E-01
-1.029181E+00
4.040109E-01
-1.139022E-01
-7.870372E-01
-1.574518E-01
-4.735714E-01
-2.492192E-01
3.337093E-02
-3.435167E-01
-1.663882E-01
-3.757449E-01
3.343023E-01
2.893618E-01
-1.882483E-01
9.504366E-02
-3.331787E-01
-3.379394E-02
-2.229241E-01
-5.340620E-01
-1.635323E-02
6.463272E-02
-1.946090E-01
-1.980951E-01
-1.637349E-01
1.957829E-01
-1.820805E-01
2.798159E-01
2.594415E-01
-1.723196E-01
-2.675849E-01
-2.331362E-01
-1.361901E-01
4.120697E-03
-5.648238E-02
-3.762188E-01
-2.222531E-01
2.291176E-01
-1.201131E-01
2.632733E-01
-1.766686E-01
-3.072333E-01
-1.318346E-01
-2.816696E-01
-5.805987E-02
-8.230035E-01
-1.214603E-01
5.459466E-02
-1.457754E-01
-1.058387E-02
-1.236711E-01
6.640116E-02
-2.284237E-01
-1.281154E-02
8.741751E-02
-5.872917E-02
-4.272352E-01
-2.385157E-01
-1.727621E-01
-2.380332E-01
-2.601990E-01
-2.389584E-01
1.152677E-01
-2.097694E-01
-9.257496E-02
-2.377250E-01
-3.558714E-02
-2.826780E-01
-1.477663E-01
-1.896835E-01
-2.400809E-01
-1.125314E-01
-2.648636E-01
-1.249816E-01
-2.729005E-01
-1.064781E-01
-1.849815E-01
-1.404364E-01
-1.975807E-01
-7.922267E-02
-2.385647E-01
-3.847919E-01
1.423453E-01
-9.123278E-03
-1.816594E-01
-1.223835E-01
-2.089496E-01
-2.235344E-01
-1.601569E-01
-2.191778E-01
2.155112E-01
5.662471E-02
5.061753E-03
9.653011E-03
7.643831E-02
4.134438E-01
-6.237097E-02
-3.531615E-01
5.807739E-01
7.711013E-02
-2.017633E-02
-1.970112E-01
-1.031532E-01
3.037824E-01
9.779122E-02
-1.348245E-01
-2.120253E-01
3.555007E-01
2.931815E-01
1.839339E-01
-1.049591E+00
-8.235594E-02
5.712301E-01
-6.765444E-02
-5.441243E-01
2.161317E-02
1.907154E-02
8.140290E-03
-8.557827E-02
3.214031E-01
-2.225017E-01
-3.586142E-02
3.606892E-02
3.817405E-01
-4.316952E-01
2.141190E-01
3.045143E-01
8.008229E-01
-1.557083E-01
-2.400816E-01
7.403685E-03
-9.181774E-01
6.488975E-02
-1.763806E-01
-6.182713E-02
1.067437E-01
4.210901E-01
-1.285860E-01
-2.648855E-01
-2.684225E-01
-5.641781E-01
-4.280020E-01
-3.185514E-01
-6.291491E-01
-7.314418E-02
-4.615958E-01
-4.733064E-01
6.890971E-02
-9.735774E-01
-2.799578E-01
-3.878115E-01
-3.220092E-01
-3.759204E-02
-4.157048E-01
-7.448572E-01
-2.240097E-02
-4.361658E-01
-4.076766E-01
-7.462593E-01
-2.152200E-01
4.791087E-01
-9.410840E-03
1.298827E-01
2.296054E-01
-2.971167E-01
-2.468431E-01
-4.808992E-01
-2.044268E-01
1.018369E-01
2.429158E-02
6.349981E-02
-2.157923E-01
6.748793E-04
1.763137E-01
-3.929043E-01
-6.671686E-02
2.649280E-02
-3.614535E-01
-9.727270E-02
4.396061E-01
-1.341349E-01
5.696682E-02
2.256827E-01
-1.635328E-01
5.362553E-02
-1.842986E-01
4.490788E-02
4.252187E-01
-9.874879E-02
-1.393655E-01
7.631684E-02
-1.143811E-01
1.595214E-01
-5.126303E-01
-4.073692E-02
-1.530960E-01
2.068036E-01
-1.588675E-03
2.964865E-01
1.355282E-01
3.020120E-01
2.140880E-01
-3.816356E-01
-5.656078E-01
-7.601510E-02
3.869670E-02
8.042003E-02
-8.388386E-01
1.025713E+00
-2.454639E-01
-2.940832E-01
-5.428031E-02
1.282605E+00
-2.603970E-02
-4.855312E-02
-1.957685E-01
2.401933E-01
3.915521E-01
4.380863E-01
-1.012387E+00
-7.581391E-01
-3.448372E-01
-1.093249E-01
-6.139982E-01
-3.704397E-01
1.047359E-01
-2.295054E-01
1.865021E-01
-2.791180E-02
-2.120353E-01
8.469536E-01
1.682406E-01
-3.321296E-01
2.545646E-01
-3.026432E-01
3.552419E-01
9.273208E-02
1.456041E-01
3.995385E-01
-2.089266E-01
-3.815066E-01
4.653796E-01
-1.361552E-01
3.604747E-01
-2.880409E-01
-4.030114E-01
1.052135E-01
-7.744182E-03
-2.592759E-01
3.076582E-01
-2.714750E-03
-4.091795E-01
-4.358850E-02
-2.228526E-02
-6.873237E-02
1.488408E-01
1.417128E-01
6.025115E-04
3.898600E-01
-2.897904E-01
-1.806613E-01
-4.189577E-01
-4.035455E-01
-1.021544E+00
2.187816E-02
-4.494151E-01
-7.067257E-01
-4.782585E-01
-3.833730E-01
-5.743131E-02
-1.467605E+00
-2.902725E-01
-9.005036E-01
4.892159E-02
1.037122E+00
-1.441635E-01
4.482902E-02
-7.404616E-01
-3.665105E-01
3.771339E-01
-2.543015E+00
2.194649E+00
-1.661343E+00
6.007515E-01
-7.760435E-01
-1.188848E+00
1.554307E-01
-3.561866E-01
-7.211745E-01
-1.161973E-01
3.542614E-01
2.745784E-01
-1.875443E-01
4.401826E-01
8.357469E-01
-1.838703E-01
2.113876E-01
2.418606E-01
1.404483E-01
-3.131721E-01
-5.721982E-01
-3.024335E-01
-3.199758E-01
5.146711E-01
-4.954941E-01
-5.749939E-01
-3.603570E-01
-2.093306E-01
-2.679374E-01
-5.549629E-01
-8.002834E-02
1.165143E-01
1.678667E-01
2.686357E-01
9.524751E-02
-4.246235E-01
-7.218947E-01
-2.862295E-01
-3.871410E-01
3.118100E-01
-3.524027E-01
-7.639041E-01
3.138622E-02
3.406000E-01
5.883273E-01
1.366963E+00
-4.818212E-01
-1.836867E-01
1.052062E-01
-3.701336E-01
2.927597E-01
-4.295089E-01
-2.864768E-01
-3.981190E-02
-1.024418E-01
-4.183875E-01
1.780343E-01
-1.999552E-01
-3.342478E-01
-2.217879E-02
-2.589315E-01
-3.145320E-01
-3.178271E-01
-3.070000E-01
-1.604281E-01
-2.748581E-01
-2.121061E-01
-3.621153E-01
-3.119574E-01
-4.305913E-01
5.266411E-01
-2.301449E-01
-2.067051E-01
2.130588E-01
-7.306699E-01
-1.529695E-01
-5.961385E-02
-5.485040E-01
-3.060061E-01
-5.552112E-01
5.302547E-01
-5.277510E-01
-2.703563E-01
6.231260E-01
5.446978E-01
1.319235E-01
4.061951E-01
-2.066056E-01
-2.596403E-01
-2.739399E-01
-7.302700E-02
6.354489E-01
9.688536E-02
1.329969E-01
-1.223075E-01
4.839811E-01
-1.286044E-01
1.698894E-01
2.178124E-01
-2.080612E-02
2.718446E-01
-4.492033E-01
8.935643E-01
1.321347E-02
-2.927665E-01
-2.236736E-01
-4.679287E-01
2.083482E-01
7.626929E-01
-1.454816E-01
-2.045963E-01
-2.795346E-01
1.829270E-02
1.331802E-01
2.751537E-01
-7.547748E-02
-2.741855E-01
-1.798672E-01
-5.030072E-01
-6.302671E-02
8.707626E-02
-2.221255E-01
-2.974172E-01
-3.476141E-01
-4.855684E-02
-2.189892E-01
2.286016E-01
-6.697362E-02
-3.393322E-01
1.093345E-01
-4.055088E-01
-4.520672E-02
-3.874692E-01
-3.755695E-01
-3.665411E-01
-2.334551E-01
-3.125333E-01
-3.436835E-01
5.017636E-01
-4.713970E-01
-1.000397E+00
2.100510E-01
-6.604193E-01
-7.507655E-02
-2.455607E-01
-1.680099E-01
-1.216486E-01
-3.766645E-01
-4.108899E-01
5.038821E-01
-3.430932E-01
1.608017E-01
4.427215E-01
1.166148E-01
-7.225857E-02
-8.299034E-02
-5.729067E-01
-1.357573E-01
-2.583563E-01
-2.959464E-01
-6.502592E-01
-4.957275E-01
8.643078E-01
-1.410891E-01
3.704508E-01
-3.204127E-01
-2.852129E-01
1.627911E-01
-1.282976E-01
-3.933967E-01
-2.646662E-01
-7.403782E-02
2.764263E-01
-4.267581E-01
-6.092841E-01
-1.416664E-01
-4.782347E-03
-1.524323E-01
-3.549631E-01
-1.051983E-01
-3.928210E-01
-2.614525E-01
-2.290475E-01
3.105966E-01
-2.823543E-01
-4.245909E-01
-2.848317E-01
-2.865071E-01
-4.780438E-02
-3.524098E-01
-3.217202E-02
-1.371977E-01
-1.664111E-01
1.353694E-01
-1.387610E-01
4.697329E-01
-3.160281E-01
-3.179487E-01
-3.573510E-01
-1.511473E-01
-2.959320E-01
-1.700223E-01
-2.464670E-01
-2.945396E-01
3.621982E-02
-2.850414E-01
7.201363E-03
6.471442E-02
-2.129937E-01
-2.599303E-01
-1.331707E-01
-2.159893E-01
-6.723703E-02
-2.735007E-01
-1.852652E-01
-2.685052E-01
-4.431335E-01
-1.710322E-01
-4.020855E-01
-9.910997E-02
-3.709303E-01
6.654713E-02
-2.490689E-01
3.182744E-01
3.895307E-01
-5.649210E-02
-6.914790E-02
-4.012941E-01
2.358406E-02
-1.346187E-01
-1.737766E-01
-2.821118E-01
-1.955342E-01
-9.672767E-02
-3.349939E-01
-6.996201E-02
-2.495240E-01
-2.467229E-01
4.862842E-02
-2.042858E-01
-1.171230E-01
5.745322E-02
-2.861614E-01
-7.441840E-02
-1.477858E-01
1.233709E-01
-9.001819E-02
3.181755E-01
-1.336142E-01
-2.255327E-01
-1.140030E-01
-2.464354E-02
-2.127293E-01
-2.620433E-01
-3.326495E-01
1.747841E-01
-2.347815E-01
-2.130359E-01
-2.451675E-01
-1.372501E-01
-3.184545E-01
6.168100E-02
-2.343535E-01
-3.683016E-01
-2.638341E-01
-2.823206E-01
-2.779121E-01
-3.956924E-02
-2.929883E-01
1.329457E-01
-3.000678E-01
9.239930E-04
-2.907545E-01
-3.158840E-01
4.280169E-01
-2.319200E-01
-6.431315E-02
-7.598634E-01
-1.420370E-01
-3.613782E-01
-3.337425E-02
-9.586301E-02
-1.835098E-01
-4.974108E-01
4.003203E-02
-2.711556E-01
-8.554967E-01
-4.700637E-01
-1.395699E-01
9.741291E-01
4.427245E-01
7.286265E-02
5.931208E-02
-1.248930E-01
-3.968804E-01
1.819475E-01
-1.103636E-01
1.596789E-01
6.495069E-02
1.886741E-03
-5.029770E-01
-5.898101E-01
-2.807817E-01
3.578638E-01
-3.967916E-01
1.303423E+00
-3.716554E-01
1.278141E-01
1.406794E-01
9.139039E-02
-4.073238E-01
-5.360199E-01
-1.510122E-01
-4.355950E-02
7.549541E-02
1.015158E+00
7.272501E-02
-1.248404E-01
-2.315116E-01
1.244063E-01
1.901981E-01
-1.271627E-01
4.842712E-01
-2.441428E-01
7.331941E-01
1.762056E-01
-9.275103E-02
-1.613802E-02
7.587626E-02
-2.232515E-01
-3.334085E-01
-1.104548E-02
5.191863E-01
-6.074028E-01
1.116062E-01
6.189092E-02
-1.764685E-02
1.959133E-01
-2.572424E-01
-1.243836E-01
-1.903254E-01
-2.827735E-01
-2.210773E-01
2.046610E-03
-2.113225E-01
1.535896E-01
-2.023527E-02
-1.891402E-01
-1.881749E-01
-1.723444E-01
-2.652633E-02
-1.156113E-01
-7.037731E-02
-3.577994E-02
-2.074264E-01
4.699270E-01
-1.572610E-01
-3.439626E-01
1.153242E-01
-1.181569E-01
-1.829241E-01
-1.300193E-01
-1.812349E-01
-2.267550E-01
-2.381991E-01
8.055799E-02
-9.016474E-01
-2.428628E-01
-2.272596E-01
-2.650206E-01
-2.036969E-01
-1.342237E-01
-8.545986E-03
-4.484894E-02
-2.741278E-02
-1.827570E-01
-3.080503E-01
-1.778776E-01
-1.947783E-01
-4.164966E-01
-2.494185E-01
2.105837E-01
4.881568E-01
-1.279685E-01
2.900271E-01
-2.231133E-01
1.374643E+00
-9.035858E-01
-4.956996E-01
-2.213440E-01
-1.710098E-01
-3.428443E-01
-2.389736E-01
-2.502596E-01
-4.134914E-01
-7.902146E-02
1.329011E-01
2.059897E-01
-9.640199E-01
-4.259226E-01
-3.470861E-01
-4.497455E-01
3.750583E-01
-4.235631E-02
-6.614156E-02
-6.286139E-01
-4.884249E-01
-8.360983E-02
-1.386329E-01
-4.863526E-01
-4.642057E-01
-1.263987E-02
-1.466761E-01
1.681859E-02
-1.026898E-01
-3.273281E-01
-3.276370E-01
-2.008171E-01
2.132893E-01
-4.211149E-01
-4.417484E-01
-5.105612E-01
-1.244081E-01
-4.502207E-03
1.072934E-01
-1.011284E-01
-7.752900E-01
-2.948575E-01
-9.262458E-02
-3.680275E-01
5.619271E-01
2.491729E-02
-1.473091E-01
-4.374836E-02
7.752179E-02
3.794611E-02
1.931281E-01
6.967366E-02
-6.296625E-01
4.121651E-01
-5.942744E-01
-2.932002E-01
7.141734E-02
2.973808E-02
-2.264893E-01
5.651964E-01
8.160986E-03
-6.177237E-01
-3.302792E-01
-5.115478E-01
-6.739878E-01
-5.682145E-01
-6.624571E-01
-6.300083E-02
-4.454938E-01
1.023956E+00
-6.160844E-01
-2.919106E-01
4.606425E-01
-1.071416E+00
-8.399630E-01
-7.597502E-01
-1.041049E+00
1.571397E+00
4.573943E-01
-1.111713E+00
3.166801E-01
1.333883E+00
2.368816E-02
-6.394091E-01
5.317496E-01
8.715826E-02
-1.291348E-01
-4.183691E-01
3.722428E-01
3.413869E-01
-2.298908E-01
1.043668E-01
-1.906453E-01
-1.540635E-02
-4.406463E-01
-4.182838E-02
3.828575E-01
-1.503714E-01
-2.005817E-01
-3.717414E-01
-3.696043E-01
3.914710E-01
-1.413964E-01
-2.587716E-01
1.995655E-01
-3.336986E-01
-7.753243E-01
-2.311632E-01
7.086562E-01
-4.447103E-01
-1.745895E-01
-2.282912E-01
5.250293E-01
8.378288E-01
-1.148486E-01
-1.135026E-01
2.587644E-01
-4.887069E-01
3.912441E-01
-3.393722E-01
-1.440103E-01
9.266776E-02
-2.002145E-01
-4.336521E-01
-3.884248E-02
-2.542919E-01
-2.257963E-01
-3.531636E-01
-4.657540E-01
3.419315E-01
-1.948881E-01
-1.198839E-01
2.612230E-01
-2.446385E-01
5.392971E-01
1.307585E-01
2.585763E-01
-2.353602E-02
-1.705986E-01
3.394788E-02
2.105201E-01
-1.120218E-01
3.629877E-01
-7.858455E-02
-3.563025E-02
-1.446192E-01
8.908270E-01
-3.483372E-01
-2.128205E-01
-6.859376E-01
-2.828063E-01
2.081214E-01
-9.695642E-02
6.293145E-02
1.122929E-01
-2.946822E-01
-4.940722E-01
3.075483E-01
1.111949E+00
-1.778135E+00
3.111887E-01
-2.410550E-01
-2.003158E-01
3.413572E-01
-5.179783E-02
-2.611205E-01
3.826713E-01
1.394138E-02
-2.996576E-01
-3.558689E-01
7.221367E-01
3.120615E-01
-1.111955E-02
-3.273202E-01
-7.951249E-03
-4.279574E-01
-2.107909E-01
-2.534509E-01
-1.749859E-01
1.576303E-01
-6.238665E-01
-1.460240E+00
-4.497549E-01
-1.277046E-01
-5.899232E-01
1.875052E-01
-4.120856E-01
4.152784E-01
-1.406671E+00
-2.313584E-01
-4.530523E-01
-8.620596E-02
9.858999E-02
3.119522E-01
-5.988867E-01
-5.018401E-01
1.514568E-01
5.785228E-01
1.725324E-01
-1.628590E-01
1.707070E-01
-5.398855E-01
-6.231994E-02
6.167021E-01
-8.121701E-03
-2.588385E-02
-1.605375E-01
-1.912229E-01
-1.373932E-01
6.398347E-01
-4.202060E-01
8.065085E-01
-4.306363E-01
-6.657206E-01
4.055576E-01
1.757089E-01
-3.253706E-01
-2.957959E-01
-2.583833E-01
2.166854E-02
9.431907E-01
-3.124354E-01
-1.967782E-01
4.999995E-01
-2.861702E-01
-5.240477E-01
1.303978E-01
5.812078E-01
-1.023200E+00
-2.811081E-02
-5.985860E-02
-5.118763E-01
2.442846E-01
-5.480309E-02
-4.050425E-01
4.276384E-01
1.175854E-02
1.217453E+00
-3.149517E-01
-2.680279E-01
5.707142E-01
-4.948383E-02
-4.960968E-01
-9.356828E-02
-1.402441E-01
-7.291359E-01
-4.046268E-01
-7.335272E-02
5.976254E-01
-1.314696E-01
-3.892121E-01
-4.928970E-02
-1.126075E+00
-8.935448E-03
3.932956E-01
-3.996424E-02
-4.000149E-01
-3.004919E-01
2.123210E-01
-2.177494E-01
-1.721142E-02
6.988700E-01
4.676776E-01
-4.159446E-01
6.235633E-01
-5.808826E-01
-7.468430E-01
8.073671E-02
1.134898E-01
1.730444E-03
-4.014763E-01
-9.610635E-01
-2.235869E-01
2.010062E-01
-4.046042E-01
-3.959658E-01
-1.985021E-01
-7.448406E-01
-2.532809E-01
1.149385E-01
-4.316417E-01
-2.183631E-01
-3.528200E-01
-3.781861E-01
-2.044108E-01
-2.838179E-01
6.256038E-01
-2.241242E-01
-2.131226E-01
-1.045408E-01
-1.150916E-01
-3.800671E-01
-1.143888E-01
-5.020381E-01
-5.576412E-01
-2.105118E-01
-3.840165E-01
-5.580458E-01
8.987106E-02
-2.769811E-02
2.544384E-01
-4.030162E-01
-2.444087E-01
-2.159435E-01
-2.545706E-01
-2.505316E-01
-3.755626E-03
-2.374137E-01
4.959547E-03
-2.516090E-01
-1.948711E-01
6.914210E-02
-2.287747E-01
2.908350E-01
-6.957388E-02
-2.810876E-01
-1.886070E-01
-3.093764E-01
-3.555768E-01
-6.048494E-02
-2.468533E-01
-4.439880E-02
-1.543131E-01
1.437808E-02
1.179031E-01
-3.193554E-02
-3.432816E-01
7.070098E-02
3.384060E-01
-3.049717E-01
-2.732070E-01
-3.743770E-02
-1.945456E-01
-8.582564E-01
-7.822058E-01
8.637303E-02
1.002876E-01
-2.678333E-01
-2.049642E-01
-2.431933E-01
-1.597518E-01
-2.707886E-01
-2.357379E-01
-2.513645E-01
-1.906744E-01
-1.203457E-01
-4.582401E-02
-3.830945E-01
-1.757324E-01
4.412578E-01
4.775507E-01
-7.786192E-01
-1.251860E-01
-9.601099E-02
-9.545109E-02
2.322831E-01
2.661235E-04
-7.669553E-01
-2.326888E-01
9.495706E-02
-2.501225E-01
-1.323709E+00
-2.624855E-01
-1.172286E+00
-1.191367E+00
3.200804E-01
-8.559141E-01
6.442363E-02
-3.260966E-02
-2.874943E-01
-3.871925E-01
-6.313896E-01
-4.462157E-02
-5.022110E-01
-7.140133E-01
7.874524E-02
-3.652060E-01
-1.943441E-01
-1.181151E+00
-8.928263E-01
3.010155E-02
-1.715932E-01
-5.983460E-02
-9.786072E-01
-5.094369E-01
4.650717E-02
-1.659794E-01
-4.187308E-01
-8.260877E-01
-6.627817E-01
-3.356552E-01
-5.994768E-01
-3.035258E-01
1.884893E-01
-2.426713E-01
3.128319E-01
-1.977907E-01
1.773991E-01
-8.712991E-02
-2.307350E-01
-2.555419E-02
3.122056E-01
-6.347826E-01
-5.042679E-01
8.515635E-01
-4.375691E-01
-1.014014E+00
-1.909258E-01
-3.750161E-01
-2.341473E-01
-2.352065E-02
-4.522060E-01
-4.323195E-01
-1.874977E-01
-4.380322E-01
-2.191970E-01
-6.488872E-02
-2.082430E-01
-1.251003E-02
1.495488E-01
3.149597E-01
-3.402216E-02
-1.675820E-01
-3.886455E-02
-7.461334E-01
-3.900877E-01
1.402917E-01
-1.753716E-01
-8.212623E-01
1.418317E-01
5.915362E-02
-3.432362E-01
-4.119959E-01
-9.068288E-02
-1.511944E-01
-1.098709E-01
-4.027267E-02
-2.137105E-01
2.764202E-02
-2.799676E-01
4.027394E-01
-2.919837E-02
-2.178202E-01
2.619396E-01
-6.692895E-01
4.269820E-01
-2.452404E-01
-3.960015E-01
-8.505538E-02
-2.518714E-01
6.980998E-01
1.392265E-01
-6.807061E-02
-2.551141E-01
-4.349268E-01
-1.525464E-01
-5.654728E-03
-1.043716E-01
-4.015256E-01
-5.809642E-01
-9.006912E-01
-1.316429E+00
3.390211E-01
-8.215078E-01
2.061826E-02
-2.541008E-01
-2.917103E-01
1.681863E-01
2.326680E-01
4.130496E-01
-4.778510E-01
-5.930370E-01
-1.459144E-01
-2.207977E-01
-1.549092E-01
-5.251055E-01
1.598367E-01
-4.006751E-01
-3.487808E-01
2.299284E-01
8.446730E-01
2.605257E-01
-4.621603E-02
-3.147121E-01
5.369384E-01
2.891466E-01
-2.444980E-01
1.533172E-01
2.835131E-01
-2.914364E-02
-2.333706E-01
1.435314E-01
-8.595964E-01
-9.885732E-01
-3.468860E-01
2.004819E-01
1.061823E+00
-5.651890E-01
-7.418727E-02
9.060491E-01
4.565822E-01
-3.230352E-01
2.507755E-01
-6.431282E-01
1.182214E-01
4.050251E-01
-2.482072E-01
-1.631892E-01
4.812209E-03
2.971972E-01
5.523457E-02
-5.772409E-01
-6.392031E-01
-1.165750E+00
-7.668100E-01
-8.382160E-01
-8.800142E-01
-8.823867E-01
-1.189700E-01
-1.431178E-01
-1.035376E-01
-1.060450E-01
-3.115286E-01
2.481138E-01
-1.440345E-02
2.793006E-01
5.283716E-01
6.262369E-01
2.818003E-01
6.533293E-02
5.127526E-01
-9.415754E-01
-8.704155E-01
-1.568036E+00
6.501129E-01
2.740526E+00
-4.624391E-01
-1.013402E+00
-1.661686E+00
-2.164480E-01
2.048054E-01
-3.783945E-01
-4.126793E-01
-1.446179E-02
3.493288E-01
5.733085E-01
-8.374262E-01
-1.534214E-01
-2.589904E-01
6.719703E-03
-2.899620E-01
-3.840743E-01
1.666275E-02
-4.057920E-01
-1.599760E-01
-4.020710E-01
-1.902690E-01
-6.574548E-02
-3.649696E-03
-1.906326E-01
-1.908677E-01
5.873670E-02
-4.730852E-01
-3.123146E-02
-3.805388E-01
7.121290E-03
-2.988351E-01
-4.197663E-01
-2.012762E-01
-2.831288E-01
-3.167644E-01
3.549172E-01
2.769384E-01
-2.152190E-01
-4.188681E-02
-3.133616E-02
3.614553E-01
1.081035E+00
-1.648663E-01
-3.535942E-01
4.511913E-02
-4.648439E-01
2.108703E-01
-3.958977E-01
-1.324518E-01
2.063820E-01
-1.318790E-02
-4.316040E-01
-6.637946E-01
-5.519096E-01
-4.158560E-01
-1.756517E-01
-2.475684E-01
-4.528490E-01
-9.283242E-02
-1.944419E-01
-2.339287E-01
-2.705123E-01
-5.532497E-01
-2.524789E-01
-3.374261E-01
-4.811977E-01
-6.745561E-02
2.120706E-01
-2.339721E-01
5.634941E-02
-7.162691E-01
-3.261217E-01
4.345849E-02
-3.841775E-01
-1.848617E-01
-5.865068E-01
-4.044345E-01
-4.152774E-01
-1.818330E-01
1.188895E-01
-3.504462E-02
-3.230734E-01
1.939380E-01
-6.711094E-02
-2.389835E-01
-2.344600E-01
4.485444E-01
7.283313E-02
-7.857213E-02
-1.799321E-01
-1.836129E-01
7.988848E-02
-5.613605E-01
-7.539662E-02
-3.251485E-01
-1.349143E-01
-3.091968E-02
-5.379490E-01
-2.289013E-01
1.502024E-01
-2.860782E-01
-2.698094E-01
-5.497009E-01
-1.331151E-01
5.473587E-01
1.174110E-01
3.490883E-01
-4.273687E-01
-3.524082E-03
-1.542316E-01
-1.046295E-01
6.799215E-02
-1.526617E-01
-6.640941E-01
-4.945083E-01
-7.388054E-03
1.153740E+00
-7.704638E-02
5.335078E-01
-5.180818E-03
1.014770E-01
-4.487055E-01
-3.082052E-01
-1.256643E-01
-5.275416E-01
-1.403530E-01
-5.602172E-01
-4.462123E-02
-4.278983E-01
-1.348076E-01
-4.457363E-01
-2.811006E-01
-2.181512E-01
-2.013975E-01
5.433830E-01
-2.325370E-01
-7.591375E-01
4.445683E-01
-1.744463E-02
2.168817E-01
-2.587541E-01
-3.942575E-01
7.166614E-02
-2.492634E-01
-4.091530E-01
-6.471873E-02
-1.057848E-01
-6.563798E-01
1.831724E-01
1.531717E-01
-1.052686E-01
-2.327838E-01
-6.163788E-01
-2.443337E-01
4.003007E-01
-4.106271E-01
-2.705008E-01
-5.225316E-02
-4.003123E-01
-5.746571E-01
2.038999E-03
-5.037751E-01
-4.565302E-02
-2.859770E-01
-2.193341E-01
-1.321273E-01
-2.898866E-01
2.580927E-01
3.116240E-02
8.284374E-02
-8.852226E-01
-4.061112E-01
2.228289E-01
-4.265039E-01
-2.283993E-01
-6.943892E-01
-3.773934E-01
-1.604618E-01
-3.331217E-01
-3.829196E-02
-2.659308E-01
7.959108E-01
-1.931552E-01
-4.045458E-01
-1.592117E-02
-6.899191E-02
-5.696561E-02
-4.172421E-01
-3.950652E-01
-2.354891E-01
-1.678917E-01
1.624129E-01
-4.146809E-01
-2.496506E-01
9.665218E-01
-2.091328E-01
-2.476089E-01
-3.644030E-01
-3.655852E-01
-2.532937E-01
-5.738975E-01
-2.314311E-01
-2.450103E-01
-2.095273E-01
-2.198083E-01
-2.938907E-01
-3.078865E-01
-2.542967E-01
-2.779715E-01
2.648397E-02
-1.343275E-01
-2.551379E-01
-3.697208E-01
-2.729041E-02
-3.181010E-01
-4.352073E-03
-4.942493E-01
-4.302040E-01
-2.676481E-01
1.910777E-01
3.267361E-01
-2.343892E-01
-2.317653E-01
-1.174631E-01
7.965296E-02
-1.043107E-01
-1.714939E-01
-2.763663E-01
-2.412374E-01
-2.577887E-01
-3.313942E-01
-2.378613E-01
-2.301452E-01
-3.094042E-01
-1.794048E-01
-2.224608E-01
-9.794841E-02
-3.322719E-01
-2.207625E-01
-1.652165E-01
-3.278198E-01
-5.139266E-01
-1.048089E-01
-5.144711E-02
-1.588019E-01
-4.709845E-02
-2.533885E-01
2.474977E-02
-2.856259E-01
-2.572856E-01
-2.992064E-01
2.719340E-03
-2.946685E-01
-2.318668E-01
-2.435619E-01
-2.448659E-01
-2.348547E-01
-1.622130E-01
-4.888806E-01
-4.720161E-01
-2.636581E-01
-2.537745E-01
-2.676579E-01
-2.129531E-01
-2.698309E-01
-4.312678E-01
-4.059632E-01
-4.810732E-01
-1.698073E-01
-2.000670E-01
-3.189067E-01
-2.108651E-01
-2.714244E-01
5.458294E-02
-2.006444E-02
-3.205974E-01
2.139423E-01
-2.223957E-01
-5.293703E-03
-5.144866E-01
-5.391803E-01
-2.431399E-01
-7.658976E-01
-5.595375E-01
-2.858404E-02
7.856691E-03
-1.375622E-01
-3.171480E-01
-4.417760E-01
-6.028660E-01
-6.026981E-01
-3.141148E-01
-2.399586E-01
-3.735573E-02
-2.081443E-01
-1.743774E-01
-2.876747E-02
-6.460997E-01
-4.225933E-02
1.579190E-01
4.813057E-01
-1.061728E+00
1.292081E+00
-2.057327E-01
2.488419E-01
-3.539643E-01
-1.093620E-01
-5.092655E-01
4.107646E-02
-4.513432E-01
-3.498457E-01
3.124636E-01
1.608828E-01
-2.169477E-01
-1.840801E-01
5.795299E-01
3.289876E-01
2.741099E-01
-3.263230E-01
-2.456070E-01
5.064488E-01
-2.187755E-03
-2.223763E-01
1.044884E+00
-2.122541E-01
-3.611038E-01
4.111242E-01
-2.159269E-01
-5.266737E-01
-1.974765E-01
-4.496267E-01
-3.618595E-01
3.652242E-01
2.283430E-01
-4.242411E-01
3.954156E-01
-9.481084E-02
-3.476679E-01
-2.280487E-01
-5.619577E-01
-2.216912E-01
-2.950328E-01
-1.949150E-01
1.192004E-01
-1.017803E-02
-2.132122E-01
8.410290E-02
-9.278016E-02
-2.108641E-01
-6.538744E-01
-2.748192E-01
-1.757550E-01
9.125685E-02
-1.710123E-01
8.938309E-02
4.288032E-02
-2.363288E-01
-2.512313E-01
-2.092701E-01
3.892226E-02
-2.374382E-01
2.136424E-01
-3.152795E-01
1.686331E-02
-1.635064E-01
-1.594666E-01
-1.566158E-01
-2.758232E-02
-9.415370E-03
-3.358496E-02
-2.984430E-02
-7.266384E-02
-1.840168E-01
-4.033384E-01
-8.682284E-02
-3.022732E-01
-4.701586E-02
-1.523965E-01
-4.913964E-01
-2.594961E-01
-3.252592E-01
7.141536E-01
8.432956E-01
1.426669E-01
-8.556241E-01
-2.914453E-01
2.196182E-02
2.794786E-01
-9.701771E-02
-2.484930E-01
3.639783E-01
-4.066343E-01
-6.347948E-01
-3.812204E-01
2.976714E+00
1.601080E+00
-3.932569E-01
-4.391476E-02
4.636222E-01
-4.946200E-01
-3.967734E-02
-3.352647E-01
-1.073567E-01
2.528834E-01
-1.315708E-01
-8.197922E-01
-4.142747E-01
-2.086619E-01
2.008212E-01
-6.965257E-02
-1.653674E-01
-2.137286E-01
-2.278212E-01
4.292058E-01
-1.662030E-01
-3.617548E-01
-1.472953E-01
5.577698E-02
4.194837E-01
-5.434967E-01
3.743421E-01
-4.403915E-01
-3.413438E-01
-1.798394E-01
3.629115E-01
4.798836E-01
-3.344561E-01
-4.051133E-01
6.524040E-02
4.842070E-02
7.949091E-02
4.611290E-02
1.538276E-01
5.989189E-02
5.538344E-01
-3.129408E-01
-5.252426E-01
-6.100208E-02
-3.581337E-01
-3.250376E-01
-3.250614E-01
-3.064841E-02
-4.522847E-01
-2.513425E-01
-7.627225E-01
-4.989443E-01
3.662626E-02
-1.510189E-01
-4.335062E-01
-6.553326E-02
1.719972E-01
4.435414E-01
-5.038594E-01
4.761268E-02
9.865792E-02
-9.476063E-01
-1.041420E+00
-2.901020E-01
-8.943485E-01
-4.428467E-01
-1.256266E-01
1.606279E+00
-2.574275E-02
7.933176E-01
-4.366385E-02
2.327533E-01
-1.429273E-01
-6.158207E-01
-2.225894E-01
-1.383602E+00
3.788949E-01
-1.844681E-01
-2.912863E-01
-5.450558E-01
4.191409E-02
1.187304E-01
5.717359E-02
4.216905E-01
-4.698920E-01
5.789456E-01
-9.091404E-02
-1.164056E-02
-1.479023E-01
5.302845E-01
-6.973859E-01
2.461399E-02
-3.969071E-01
3.815860E-03
-1.665379E-01
2.478538E-01
2.105324E-01
-3.050142E-01
-8.877476E-02
-9.434945E-01
2.414546E-01
1.371988E-01
-1.881230E-01
-2.778424E-01
-5.329115E-01
-3.563350E-01
-6.660061E-01
-3.613406E-01
-1.853945E-01
5.721808E-01
5.363753E-02
1.997200E-01
8.285641E-02
-1.078855E-01
-4.077427E-01
-9.212485E-02
-4.132763E-01
4.496323E-01
4.256005E-02
-1.446571E-01
-4.368690E-02
-2.668860E-01
-7.219966E-02
-7.650568E-02
-1.764456E-01
-2.364107E-01
-1.567085E-01
-1.783169E-01
-1.324135E-01
-1.073424E-01
-7.722584E-02
1.202794E-01
-6.461545E-01
-2.013107E-01
-6.155332E-01
-2.673793E-01
-1.657510E-01
3.352812E-01
-1.377878E-01
-4.714738E-02
-2.693321E-01
-5.885675E-02
7.473011E-01
-7.818966E-03
3.165364E-01
-5.233705E-02
3.052463E-01
6.571001E-01
-2.876436E-01
-2.192849E-01
-2.009779E-01
-2.067396E-01
3.950813E-02
-6.030729E-02
-2.692594E-01
3.853338E-02
-4.638591E-01
1.950430E-01
-1.634091E-01
8.997099E-01
-3.307735E-01
1.476658E+00
-1.501228E-01
2.964523E-01
2.444213E-01
-2.338068E-01
-2.846925E-01
3.182364E-01
-5.719817E-01
-4.512967E-01
-1.093207E-01
-5.403975E-01
-5.625424E-01
8.752073E-02
1.078178E+00
-2.882130E-01
1.076029E-03
-1.170898E-01
-1.970066E-01
-4.308675E-01
-1.318814E-01
4.397630E-01
-1.057850E-01
3.938277E-02
-3.925118E-02
-5.761970E-01
-3.428253E-01
-1.732033E-01
9.677835E-01
1.224725E-01
-2.482471E-01
3.335858E-02
2.610982E-02
-1.979710E-01
1.616587E-01
2.374875E-02
-2.904518E-01
1.218535E-01
-2.448857E-01
-5.060605E-01
-3.451779E-01
-2.737513E-01
3.974737E-01
2.242043E-01
-3.005774E-01
-2.168527E-01
2.171064E-02
7.502421E-01
7.017976E-01
-6.579657E-02
2.164150E-01
8.602774E-02
-1.086684E-01
4.514244E-01
2.467221E-01
-1.719501E-01
4.502452E-01
-6.466359E-01
-1.689245E-01
-1.047467E-01
-6.615830E-01
-3.356179E-01
-3.364766E-01
-3.344479E-01
-3.721129E-01
9.260160E-01
-1.066859E-01
-2.738434E-01
1.046182E+00
-1.267728E-01
-3.973949E-01
-1.570028E-01
-4.332465E-01
-1.807282E-02
-2.465473E-01
2.219233E-01
-2.628838E-01
-1.788699E-01
-1.684330E-01
-2.624664E-01
-1.548842E-01
1.291196E-01
7.386306E-01
-3.789989E-01
-2.208371E-01
-1.922388E-01
1.029469E-01
-2.501739E-01
-5.082044E-02
-2.729568E-01
-3.790063E-01
3.350207E-02
-8.283629E-02
-2.404303E-03
2.867631E-01
5.941387E-02
9.956774E-01
-2.520913E-01
-2.864470E-01
-4.465612E-01
-2.134151E-01
-1.519430E-01
-2.337214E-01
-3.211382E-01
-2.435315E-01
-1.131427E-01
-2.448991E-01
-8.624645E-02
2.650812E-02
-1.852446E-01
-1.956941E-01
-3.190688E-01
-1.528967E-01
-1.635182E-01
-6.363783E-02
5.906411E-02
-2.314309E-01
-2.043316E-01
2.563195E-01
-2.612507E-01
-8.875047E-02
4.275567E-02
3.505760E-02
-3.005526E-01
-3.579442E-01
-1.617030E-02
-3.511186E-03
-2.006550E-01
3.876075E-01
-2.487032E-01
-1.785002E-01
-1.053527E-01
-2.721430E-01
-1.190822E-01
1.783269E-01
-3.240616E-01
-2.820380E-01
-2.419082E-01
-2.971300E-01
-1.650709E-01
-3.341398E-01
-8.773654E-02
-1.250389E-01
-2.500189E-01
2.088994E-01
-1.021916E-01
-1.608005E-01
-6.676914E-02
-1.490348E-01
-2.619583E-01
-8.915381E-02
-1.818791E-01
-2.425524E-02
-2.095425E-01
-2.734161E-01
-3.136586E-01
4.145033E-01
-2.878988E-01
-2.286189E-01
-1.722990E-01
-1.025188E-01
1.645580E-01
-3.688236E-01
3.763613E-02
2.612022E-01
-2.214694E-01
-2.309009E-01
-3.147934E-01
-2.577732E-01
-2.691719E-01
5.310716E-03
-2.711430E-01
5.821478E-01
-1.445788E-01
-1.449895E-01
4.125765E-01
1.770781E-01
2.323101E-01
5.242061E-01
-1.885548E-01
-1.519615E-01
-2.763005E-01
-5.672566E-01
-3.331775E-02
1.958437E-01
2.299296E-01
-2.882149E-01
1.287235E-01
-2.855855E-01
-1.042350E+00
-1.339896E-02
-4.409749E-01
-3.017449E-01
4.925156E-02
-8.471971E-01
-4.888270E-01
-1.887110E-01
-1.912656E-01
-2.727591E-01
1.742275E-01
1.265513E-01
-7.839202E-01
4.660180E-01
1.103929E-01
3.049999E-01
3.267137E-01
2.040133E-01
-1.913242E-01
-5.666262E-01
-3.267868E-02
-2.013198E-01
-3.120609E-01
-5.352536E-01
-1.754370E-01
-1.488824E-01
-1.382533E-01
-1.474764E+00
2.032808E-01
-2.494302E-01
-4.122902E-01
-2.198301E-01
2.134236E-01
2.948459E-01
4.357442E-02
-3.948663E-02
1.067770E-01
6.195016E-01
-1.492230E-01
-6.229932E-01
-3.798427E-01
3.337417E-01
2.110867E-01
-2.506619E-01
-7.301136E-01
-1.352522E-01
1.696371E-01
-7.521785E-01
4.252362E-01
5.396885E-01
7.037463E-02
-1.888360E-02
-1.144890E-01
-3.931297E-01
-3.117438E-01
4.298107E-03
-2.573436E-01
-1.732251E-01
1.193489E-01
-1.197188E-01
1.145267E-01
-1.069819E-01
-2.299595E-01
3.104400E-01
-4.342891E-02
6.413689E-01
-4.023182E-01
1.080026E-01
6.105824E-01
-3.644972E-02
-3.660047E-01
-1.497435E-01
-1.563064E-01
-9.093694E-02
-1.624942E-01
-7.460918E-02
-2.418776E-01
1.827669E-01
-1.262261E+00
-2.979498E-01
-4.041953E-01
-5.516886E-01
-5.936956E-02
-1.883616E-01
2.989097E-01
3.096664E-02
-1.584973E-02
-5.817038E-02
-3.201411E-01
1.243992E-01
-1.935475E-02
-2.184340E-01
7.215447E-02
-1.710671E-01
-7.388118E-01
-2.927182E-01
-1.387978E-02
-1.860620E-01
-2.023898E-02
-3.790458E-03
1.118672E-01
5.249360E-02
5.639040E-01
-1.388047E-01
-2.701122E-02
-1.780968E-01
7.439471E-01
-4.871184E-02
5.264405E-01
-2.418519E-01
-3.396969E-01
-1.072249E-01
3.769057E-01
-3.163169E-01
-3.418044E-01
-1.039889E+00
5.281268E-01
9.375407E-02
-2.958100E-01
9.053014E-02
-9.924179E-03
-1.268661E+00
1.871953E-01
-8.955541E-01
5.285166E-02
1.205566E-01
-2.400262E-01
-2.229290E-02
6.167412E-02
-3.831157E-01
6.349672E-02
-2.547797E-01
-6.575617E-01
-1.672666E-01
-7.787126E-01
2.861140E-01
4.388063E-01
-2.322274E-01
-1.896597E-01
-2.422030E-01
6.804960E-01
-4.114274E-01
-3.332858E-01
-5.421321E-02
4.805809E-01
-1.340075E-01
-1.745771E-01
-7.548381E-02
1.883998E-01
-3.552333E-01
3.132550E-01
-1.063233E+00
-2.143343E-01
-3.781999E-01
-3.958204E-01
-7.220113E-01
1.919521E-02
-1.825263E-02
-5.003147E-01
3.294129E-01
-1.273018E+00
-1.251455E+00
-3.245261E-01
2.880609E-01
-4.790500E-01
-3.824729E-01
-1.170792E+00
1.961592E+00
-1.009789E+00
-6.244541E-01
5.811239E-01
-1.874807E+00
1.349346E-01
-4.756327E-01
-9.419129E-01
4.603365E-01
-3.842531E-01
-7.490388E-01
-2.896060E-01
-1.432541E-02
-3.196688E-01
-1.450802E-01
-5.970913E-02
-5.506265E-02
5.256704E-03
1.538471E-01
-3.423416E-01
-8.519019E-02
-7.907019E-02
-3.099450E-01
-7.553313E-01
-6.968920E-04
-8.031396E-01
-6.762050E-01
-4.842514E-02
-5.057825E-01
1.098228E-01
-2.751348E-02
-1.778986E-01
-5.238097E-02
-6.925082E-01
3.273962E-02
-2.259814E-01
-5.272340E-02
-2.029912E-01
1.196491E-01
-1.485216E-01
1.056879E-01
-3.127866E-01
-2.847963E-01
-4.804479E-01
-7.714861E-02
-2.236557E-01
-3.599699E-02
8.177887E-02
-2.538262E-01
8.447477E-02
-2.299297E-01
-3.050672E-01
-4.808193E-02
-1.071399E+00
-8.375221E-02
-3.632280E-01
-1.213056E-01
6.553875E-02
-2.715434E-01
-4.201214E-01
-2.900553E-01
-2.700663E-01
-7.633221E-02
-4.466503E-01
-3.775677E-01
-4.508234E-01
-3.588895E-01
-3.222390E-01
-3.621317E-01
-1.653313E-01
-4.109616E-01
-4.374494E-01
-3.940078E-01
-3.660413E-01
-4.114138E-02
-2.938476E-01
-3.395086E-01
-1.094240E-01
-3.036954E-01
-2.791276E-01
-2.200266E-01
-5.552435E-01
-3.869302E-01
-2.816375E-01
1.046806E-01
-5.242504E-01
-4.135423E-01
1.254854E-01
-2.442444E-01
-1.309664E-01
-6.635576E-01
-4.260548E-01
-3.377518E-01
-3.210411E-01
-3.030156E-01
-1.306240E-01
-4.088926E-02
-3.173626E-02
-2.795365E-01
4.838692E-02
-8.116194E-02
-3.460501E-01
-1.500960E-01
-3.737272E-01
-1.684964E-01
-7.858004E-02
-8.797420E-02
-3.882482E-01
-3.595020E-01
-2.817669E-01
-2.632569E-01
-9.434456E-02
2.249993E-01
-1.561223E-01
-5.207241E-02
5.716147E-02
-3.430860E-01
2.363947E-01
2.900662E-02
-1.975788E-01
-3.828560E-01
-1.556600E-01
-3.738907E-01
-3.139042E-01
9.585494E-02
-2.739465E-01
1.059701E-02
-1.517848E-01
-3.959160E-01
-7.013869E-01
-5.931387E-01
-1.279343E-01
-1.862012E-01
7.593751E-02
-3.435288E-01
-3.287197E-01
-1.178079E-01
-2.840652E-01
-4.826414E-01
-4.404056E-01
-8.495844E-02
1.073158E-01
8.897688E-02
4.448200E-02
-2.196681E-01
-7.468977E-02
-4.673691E-01
-9.598437E-03
-3.231583E-01
-5.211842E-01
1.109821E-01
-1.957555E-01
-1.978507E-01
-7.222978E-02
-1.838044E-01
1.496600E-01
-4.578582E-01
-2.078674E-01
-2.191307E-01
1.916904E-02
-4.150123E-01
-1.835963E-01
-2.313331E-01
-1.300771E-01
-1.975922E-01
-2.143657E-01
1.829056E-02
-1.914246E-01
-3.058120E-01
-4.076605E-01
-1.455835E-01
4.321819E-02
-3.361126E-01
-1.501824E-01
-4.411350E-01
-3.398063E-01
1.396428E-02
-8.353612E-02
-1.367949E-01
-3.186008E-01
-2.105704E-01
-1.812928E-01
-6.602230E-01
3.052546E-01
-4.347762E-04
-3.940192E-02
-1.461795E-01
-2.355737E-02
-2.339568E-01
2.850443E-02
-2.022499E-01
-1.428484E-01
-2.745573E-02
-1.423311E-01
-1.681945E-01
1.873966E-01
-4.442341E-01
-6.146250E-02
-3.017422E-01
-3.042218E-01
-5.774779E-01
-2.676619E-01
-5.310986E-01
-3.628467E-01
-4.803913E-02
-7.316853E-01
-4.501756E-01
-4.488365E-01
-4.212957E-01
-4.556241E-01
7.647975E-02
-1.037805E-01
-3.433770E-01
-4.154047E-02
-3.229496E-01
-5.341369E-01
-3.173976E-01
7.395297E-02
-1.114964E-01
-3.490633E-01
-1.923854E-01
-2.226088E-01
-2.786930E-01
-4.410356E-01
-8.081448E-01
-2.565893E-01
-3.664374E-01
-5.043669E-01
-4.181183E-02
-1.203451E-01
-3.242568E-01
-1.935641E-01
-5.908272E-02
-2.307143E-01
-2.724867E-01
-4.095840E-01
-4.436951E-01
-1.885231E-01
-4.022307E-01
-4.189953E-01
-3.719538E-01
-4.715023E-01
-1.651906E-01
-2.855019E-01
-3.694888E-01
-1.355147E-02
-3.433615E-01
-1.730366E-01
-4.707758E-01
-1.711402E-01
-2.422275E-01
1.292720E-01
-3.804221E-01
-5.403683E-01
-1.886332E-01
-1.710738E-01
-5.525343E-01
-3.766373E-01
-2.667136E-01
-2.551677E-01
-4.428205E-01
-3.291480E-01
-4.368837E-01
-6.047948E-01
2.015409E-01
-4.314460E-01
-2.903492E-01
-2.373300E-01
-3.814387E-01
-3.286039E-01
-4.060078E-01
-5.617111E-02
-4.592682E-01
8.528111E-02
1.974720E-01
1.319978E-01
-1.211660E-01
-2.607895E-01
5.514425E-01
-2.939495E-01
-3.210091E-01
-2.628375E-01
-3.113944E-01
-1.213166E-01
5.302244E-02
-2.145498E-01
-8.645905E-02
-4.089058E-01
1.172652E-01
-3.780804E-01
-2.378178E-01
1.056261E-01
-3.425394E-01
-2.946817E-01
-2.606638E-01
-6.875204E-02
-6.236903E-02
1.789379E-01
-2.577274E-01
-3.248814E-01
-1.844369E-01
-5.557810E-02
2.345535E-01
-9.605520E-02
-9.399927E-01
3.398399E-02
-1.065034E-01
4.618085E-04
-1.816026E-01
-4.864716E-02
-4.025580E-01
3.699896E-02
-4.972797E-01
-1.977567E-01
-5.862692E-02
-2.051785E-01
-5.997899E-01
-1.048331E-01
-1.784479E-01
-3.377013E-01
-3.647953E-01
-4.545254E-01
9.354355E-02
-1.136473E-02
-1.256923E-01
-2.433175E-01
-1.419337E-01
-2.834098E-01
-1.275952E-02
-1.581191E-01
-2.451194E-01
-4.484333E-02
-4.082193E-01
-7.906018E-02
-8.282952E-02
-2.878297E-01
1.105509E-01
-1.634278E-01
1.030774E-01
2.303134E-02
-6.905614E-03
-6.502518E-02
-1.228401E-01
1.201682E-01
-1.484763E-01
-1.739658E-01
-1.406183E-01
3.100093E-03
-2.719884E-01
-1.704942E-01
-3.513970E-01
3.338866E-01
-2.028772E-01
-4.234372E-01
-2.424300E-02
-1.983415E-01
-5.636296E-02
2.277788E-01
-4.413092E-01
-2.996232E-01
-3.055330E-01
8.285603E-02
-8.331366E-02
-5.948217E-02
-1.451612E-01
-5.478662E-02
-5.713570E-01
-6.506573E-01
-4.282555E-01
-1.479634E-01
-7.628159E-01
-5.685616E-01
-5.273309E-01
-5.275319E-01
-5.165446E-01
-1.445458E-01
-3.131353E-01
-3.440714E-01
1.095506E-01
-3.476251E-02
-2.596578E-01
6.157833E-02
-9.998020E-02
2.746999E-01
-1.522129E-01
1.439434E-01
-8.828282E-02
-1.212275E-01
-9.703303E-02
2.882101E-02
4.337395E-02
1.051210E-01
4.582046E-02
-1.362391E-01
-4.603146E-01
-1.116469E-01
-7.374379E-03
-1.910957E-01
-5.388633E-02
6.012139E-02
-9.570820E-02
-1.494663E-01
-9.463335E-02
-9.896195E-02
-4.227109E-01
1.346237E-01
-3.796205E-01
-3.704229E-01
-3.132438E-01
-1.300781E-01
-1.678058E-01
-3.161011E-02
-2.545858E-02
-4.747937E-01
-4.231761E-02
-8.015211E-02
6.624308E-03
-2.002508E-01
-9.059084E-02
3.901801E-02
-1.869343E-01
3.487599E-02
-3.974098E-01
-3.769040E-01
-2.079204E-01
-3.830416E-01
7.581543E-02
-1.248805E-01
-2.052751E-01
-2.094020E-01
-1.192731E-01
-6.940174E-02
7.056501E-02
-1.100616E-01
-1.852488E-01
1.625758E-01
3.288742E+00
8.648520E-01
8.511935E-01
2.759844E-01
5.274764E-01
-3.060138E+00
4.119756E+00
-5.446017E+00
-5.812390E+00
-6.162182E+00
-6.410718E+00
4.385231E+00
3.058118E+00
-5.438805E+00
3.739345E+00
-5.826944E+00
4.721935E+00
4.512025E+00
5.475761E+00
4.287872E+00
2.805375E+00
-5.276165E+00
-3.539041E+00
-4.420696E+00
-3.035583E-01
-3.731747E-01
2.295156E-01
-3.014097E-01
-4.293065E-01
-1.718872E-02
-3.090814E-01
-5.623559E-01
-5.941730E-02
-2.116665E-01
-5.359727E-01
-5.478754E-01
-7.555702E-01
-4.447366E-01
5.627269E-01
-7.490839E-01
-9.223201E-02
1.828781E+00
-6.566812E-01
-2.142176E+00
-4.251871E-01
8.334557E-02
-7.224527E-01
3.545472E-01
7.000304E-02
-9.929033E-01
-1.345897E+00
-8.600382E-01
6.518922E-02
-8.483182E-01
-4.522690E-01
-6.262370E-01
-1.105652E+00
3.281348E-01
4.765779E-01
-1.962697E+00
-1.511216E-01
-8.255667E-01
-1.855642E+00
-9.791992E-02
-4.876614E-01
-1.236849E+00
-6.858709E-01
-8.584001E-01
-5.463989E-02
3.131786E-01
-1.692203E+00
-4.091506E-02
-1.090479E-01
-7.063576E-01
-7.450188E-01
-4.809389E-01
1.028677E-01
-7.768002E-01
-7.807862E-01
-5.161919E-04
4.078692E-01
-1.122563E-01
-8.629353E-01
-1.478961E+00
-7.246726E-01
-1.504184E+00
-2.481354E-01
-3.187086E-01
-9.307772E-01
-3.846365E-01
-4.800903E-01
-5.206189E-01
-5.076319E-01
6.971248E-01
-6.753686E-01
-4.945580E-01
-9.691507E-01
-5.064438E-01
-4.882304E-01
-4.071637E-01
-6.142216E-01
-1.595976E+00
-3.816436E-01
2.278629E-01
-2.932498E-01
-7.470376E-01
-8.164683E-01
-1.602276E+00
-8.002163E-01
-5.645416E-01
-2.875664E-01
-4.730508E-01
1.547272E-01
7.363242E-01
-3.025042E-01
-2.709276E-01
-3.496725E-01
-5.663838E-01
-9.862689E-01
-2.165775E-01
-5.098173E-01
-1.136801E+00
-3.969460E-01
-1.207492E+00
-1.503811E-01
-7.242923E-01
-6.029370E-01
-8.590760E-01
-1.529596E+00
-5.031069E-01
-3.144991E-01
-3.702340E-01
-2.126323E-01
-7.034194E-01
-6.595603E-01
-1.754950E+00
-1.676819E-01
7.997842E-02
-2.717357E-01
2.756711E-01
-9.864345E-01
-8.070042E-01
7.651378E-01
-4.049711E-01
4.383705E-02
-7.090494E-01
-6.424327E-01
-7.540192E-01
-4.126311E-01
2.549493E-01
-4.471016E-01
8.352264E-02
7.255609E-01
-9.006700E-01
-7.794486E-01
-2.158865E-01
-5.707784E-01
-1.489046E+00
-6.003968E-01
-7.483470E-01
-5.923175E-01
-6.395087E-01
-3.568037E-01
-7.730472E-01
-7.166376E-01
-9.569988E-01
-9.485771E-01
-1.912543E+00
-6.680587E-01
-5.402349E-01
-5.255198E-01
-3.265853E-01
-5.252029E-01
-8.534146E-02
-5.056554E-01
-6.900488E-01
-5.411358E-01
-4.042134E-01
-4.759100E-01
1.219903E-01
-1.034632E+00
-4.655789E-01
-1.682087E-01
2.047236E-01
-2.166345E-01
7.908145E-01
1.356617E+00
-1.389526E+00
-9.832982E-01
-7.189137E-02
-3.030477E-02
4.229142E-01
-7.423180E-01
-4.788727E-01
-2.972994E-01
-5.791769E-01
-9.405628E-01
-4.666525E-01
5.349509E-01
-2.096944E-01
-5.992074E-01
-1.413468E+00
1.140757E+00
-7.316576E-01
-4.041752E-01
-1.418486E-01
-1.557719E+00
-5.841035E-01
-1.046038E-01
-1.928362E-01
-2.834486E-01
-2.829260E-01
-3.564561E-01
-6.518952E-01
-8.770292E-01
-2.242389E-01
-1.088335E-01
-1.065832E+00
2.426305E-01
-8.250735E-01
-4.505882E-01
-2.193065E-01
-3.628313E-01
3.879538E-01
-3.005360E-01
4.167884E-01
-2.048250E-01
-6.026111E-01
3.863452E-01
-3.893806E-01
-1.716703E-01
3.405136E-01
-2.511655E-01
-2.095465E-01
-6.427418E-01
-3.123414E-01
-4.524260E-01
-1.325527E-01
-5.347755E-01
-1.707791E-01
5.159310E-01
-4.027113E-01
-3.352783E-01
-8.302503E-01
-7.338478E-01
-5.924131E-01
-1.231084E-01
6.838401E-01
8.445829E-02
-3.128917E-01
-3.404578E-01
6.438180E-01
9.697792E-02
-4.670766E-01
-7.129888E-01
-1.139528E-01
-4.209917E-01
-3.760819E-01
-3.318542E-01
-2.571766E-01
-3.647263E-01
9.652816E-03
-1.214556E-01
-3.115018E-01
-4.017203E-01
-1.921744E-01
-2.345385E-01
-2.910049E-01
-1.754683E+00
-2.587339E-01
-6.545165E-01
-7.040340E-02
-2.708868E-01
4.117881E-01
1.320820E-01
-2.228731E-01
-1.837915E-01
-3.452430E-01
-2.503787E-01
-5.604713E-01
-2.102086E-01
-3.501290E-01
-5.811052E-01
-3.170934E-01
-2.891584E-01
-3.686089E-01
1.092304E-01
1.176563E-01
4.166895E-01
-1.940813E-01
-8.081044E-01
-3.105295E-01
-2.652579E-01
-3.277141E-01
-2.331332E-01
-3.139267E-01
-4.593640E-01
4.574874E-01
-6.476820E-01
-8.743074E-02
-6.090353E-01
-1.200170E+00
-2.362930E-01
-2.848672E-01
-6.973825E-01
3.532525E-01
5.652627E-02
4.965542E-03
4.561428E-01
5.890637E-02
-9.208872E-01
-6.502597E-01
-3.352913E-01
-1.360739E+00
-1.209845E+00
-1.547682E+00
1.900728E+00
5.451084E-01
-3.252899E-01
-4.357881E-01
-1.711445E-01
-9.289500E-01
6.110194E-02
2.991696E-01
6.374244E-01
-1.912590E-01
-2.390249E-01
-1.204335E+00
-3.900078E-01
5.617371E-03
-1.004758E+00
1.632654E-01
-2.669211E-02
-2.357297E+00
9.515222E-01
2.908938E-01
-4.855635E-03
-4.520909E-01
-1.202195E+00
4.226957E-01
-9.939284E-01
2.181512E-01
1.268944E+00
1.911171E-03
-4.609701E-01
-7.120034E-01
-7.846470E-01
-6.908197E-01
-7.832038E-01
-9.216457E-01
-4.186799E-01
-9.073455E-01
-8.277795E-02
-3.369904E-02
-7.784143E-02
-5.202651E-01
-1.206427E+00
-1.136022E+00
1.164451E+00
5.532259E-01
-3.067786E-01
-3.118316E-01
-8.429948E-01
-9.681405E-01
-5.582653E-01
-5.086846E-02
-1.405507E-01
-1.417845E-01
4.005952E-01
6.562928E-03
-3.999508E-01
-3.325505E-01
-8.051520E-01
-5.304888E-01
1.960145E-01
1.425306E-01
-2.425753E-01
3.262295E-01
6.927233E-01
-3.789384E-01
-1.301564E+00
-2.518014E-01
6.953235E-01
3.493426E-01
2.870703E-01
2.731296E-01
-1.294674E-01
-8.650859E-02
-2.812691E-02
3.912194E-01
1.857326E-01
-3.084966E-01
2.774743E-03
-2.661069E-01
2.934052E-01
-5.690185E-02
-6.078428E-03
-4.783367E-01
-3.846857E-02
-5.272473E-01
1.472870E-01
-7.650569E-02
1.879662E-01
2.522471E-01
1.777106E+00
-1.528289E-02
-2.633764E-02
-1.234868E-01
-2.693047E-01
-1.406672E-01
-2.938924E-01
-9.301112E-01
3.981383E-01
-1.928414E+00
-8.377526E-02
4.933689E-01
4.076947E-01
9.494144E-01
5.580038E-01
2.092879E-01
-3.353087E-01
-1.069239E+00
2.941130E-01
-1.561390E+00
-8.816435E-02
-1.356847E+00
-4.915058E-01
-6.184022E-02
-1.683346E-01
5.641643E-01
-5.518581E-01
1.163866E+00
-8.452533E-01
-3.120613E-01
2.487318E-01
-2.419455E-01
-2.513656E-01
3.681407E-01
-2.557947E-01
-2.196197E-01
2.271007E-01
-1.061490E-01
3.619595E-01
1.474420E-01
3.339752E-01
6.062132E-02
-3.924465E-01
1.197173E-01
-4.973805E-01
1.529660E-01
4.135447E-01
8.487928E-01
3.345947E-01
9.863026E-01
-5.105732E-01
-1.290404E-01
5.454922E-01
-2.803218E-01
-2.921774E-01
-2.611876E-01
-6.510836E-02
5.487618E-02
-8.564484E-02
-1.700153E-01
8.581714E-02
-3.205571E-02
-6.328244E-01
3.650540E-01
7.184878E-02
-2.342982E-01
-3.039808E-02
-2.240436E-01
-1.883911E-01
-1.017778E-01
-7.072589E-02
-8.823243E-02
-2.026600E-01
2.549547E-01
2.276816E-01
8.151154E-02
-5.499351E-01
-2.238356E-01
-1.722193E-01
7.161581E-02
-1.394598E-01
6.161139E-02
1.054907E-01
-3.878020E-01
1.945256E-02
-4.731464E-02
3.948095E-01
-4.234952E-01
-1.285708E-01
4.243574E-02
6.452813E-01
-2.751338E-02
-3.529299E-02
4.172175E-01
2.866495E-01
-2.025858E-01
-2.639949E-01
-7.534670E-02
2.714395E-01
7.696616E-02
2.853865E-01
1.306373E-02
8.980509E-02
-2.052007E-01
1.135587E-01
2.822010E-02
-6.901607E-03
8.834471E-02
-2.546725E-01
-3.457069E-01
1.328257E-01
-3.490769E-01
2.367378E-01
3.005641E-01
2.131303E-01
-1.642684E-01
-4.496852E-03
-2.932035E-02
-7.156856E-01
-1.158773E-01
6.038484E-03
-2.211882E-01
5.933220E-01
2.929247E-01
5.916142E-02
-2.653595E-02
-5.775105E-01
1.449619E-02
-2.015340E-01
-7.017483E-03
1.201249E-01
-8.209637E-02
-1.011382E-01
-1.261105E-01
-1.987578E-01
-2.260350E-01
-2.441879E-01
-4.127328E-01
2.565489E-01
1.730720E-02
4.625525E-01
1.117251E-02
-2.601101E-01
1.527496E-01
3.591048E-02
1.504024E-01
-9.824644E-02
-1.555443E-01
2.034582E-01
-1.603583E-01
-1.725910E-01
2.469839E-01
4.442179E-01
-2.998122E-01
-2.101534E-01
-1.496352E-01
2.777304E-01
-7.134216E-02
-3.324124E-01
1.841159E-01
4.494207E-02
-1.788058E-01
-1.940945E-02
-2.255677E-01
-2.410713E-01
-4.664303E-01
3.135452E-01
5.258389E-02
-8.752924E-01
-1.321602E-02
-2.327744E-01
-2.322363E-01
-1.325183E-01
3.850368E-01
1.261125E-01
2.290086E-01
8.030666E-02
2.627082E-01
5.228135E-02
1.396476E-01
-4.966213E-02
-9.127822E-02
-4.395271E-02
4.041790E-01
-1.514191E-01
1.187102E-02
-2.519488E-01
-2.006848E-01
-7.740380E-02
8.526622E-02
-4.034828E-01
-2.996507E-01
-1.758846E-01
-5.262039E-01
2.541100E-02
-4.180473E-01
1.530979E-01
-2.184981E-01
-1.180438E-01
-4.305734E-01
-1.448518E-01
5.988860E-02
1.631162E-01
-1.571928E-01
-2.168139E-01
2.420909E-02
-2.828006E-01
-2.187713E-01
-1.238886E-01
-6.755489E-02
9.259696E-02
5.648273E-02
-2.583402E-02
-5.207481E-03
8.837111E-02
-3.125378E-02
-3.107642E-02
-2.169029E-01
3.785237E-01
-4.182090E-01
-2.819759E-01
-3.719008E-01
-8.798392E-02
-2.054244E-01
2.818258E-02
1.401754E-01
-2.755629E-01
-1.734846E-01
3.858221E-01
3.747178E-01
-2.744752E-01
3.318889E-01
2.270491E-01
-4.500119E-01
-5.339899E-01
3.169750E-01
2.934946E-02
-3.650752E-02
1.186240E-01
-9.587242E-02
-2.737366E-01
-1.706477E-01
3.923715E-01
-2.850692E-01
2.432560E-01
-4.750134E-01
-1.057690E-01
-1.253274E-01
-3.612302E-01
2.103070E-01
-8.186197E-02
-4.987308E-01
-1.467380E-01
6.258635E-01
3.211151E-01
-7.829466E-02
-7.862774E-02
-2.981597E-01
-3.964838E-01
-4.010585E-01
-2.398034E-01
-6.516325E-01
-1.752783E-01
3.785618E-02
-1.113625E-01
7.762834E-03
-2.204572E-01
1.146200E-01
-2.416859E-01
-2.204721E-01
-1.800538E-01
-1.441934E-01
-2.452682E-01
-2.183740E-01
-5.681401E-02
-6.882605E-02
-1.419840E-01
-3.172740E-02
1.868381E-02
-3.474366E-01
-4.638813E-01
-1.508457E-01
-4.222947E-03
-1.429349E-01
-1.635179E-01
-8.741160E-02
-5.734742E-02
-2.464456E-01
-2.243456E-01
6.191284E-02
-1.438699E-01
-3.944241E-01
-1.698756E-01
-9.011584E-02
-1.295924E-01
-3.749366E-03
-1.264200E-01
-2.488037E-01
-1.619076E-01
-1.519609E-01
-2.538085E-01
-1.500027E-01
-3.183085E-01
2.113090E-01
-2.040400E-01
-3.137917E-01
4.004714E-01
-1.980025E-02
-1.264591E-01
-9.050616E-02
-2.162218E-01
-1.514222E-01
-2.193530E-01
-2.614424E-01
-2.691218E-01
-3.460297E-02
-7.586681E-02
-3.243665E-01
-2.433603E-01
-2.490174E-01
-9.107879E-02
-2.649542E-01
-1.674929E-02
1.979552E-01
-2.504594E-01
-1.108340E-01
-1.775496E-01
2.385630E-01
-3.560740E-01
-2.135319E-01
-2.064363E-01
-1.664426E-01
-5.456075E-02
6.750555E-02
-7.495169E-02
-2.996911E-01
-7.949758E-02
5.306883E-01
-2.565027E-01
-2.450972E-01
-2.261750E-01
-1.404242E-01
-4.135059E-01
-1.862244E-01
1.756855E-01
-3.649271E-02
-2.021631E-01
-1.892668E-01
-2.491308E-01
-1.659015E-01
-2.597207E-01
-2.825317E-01
-3.597295E-01
-1.602923E-01
-2.042889E-01
-6.549549E-02
-1.641327E-01
-1.208993E-02
-9.531886E-02
-6.864886E-02
-4.914496E-01
-7.093723E-02
1.419629E-01
4.337878E-03
4.230033E-01
8.365862E-02
1.113861E+00
-2.502724E-01
8.304387E-03
1.729432E-01
1.643090E-01
-1.087646E-01
-1.849489E-01
-1.640802E-01
-1.206406E-02
-7.742928E-01
1.546665E-01
-4.645713E-01
-3.498618E-01
-8.201179E-02
-1.144801E-01
-1.946106E-01
-3.430844E-01
3.219873E-02
3.488203E-01
-5.507150E-02
-7.705595E-01
-1.023152E+00
2.782919E-01
-2.339159E-01
-1.402747E-01
3.337520E-01
-8.076341E-01
3.447082E-02
-7.736121E-02
1.743144E-01
-2.197653E-01
-2.646635E-01
-3.138573E-01
-3.818402E-01
-5.188678E-01
1.829984E-01
2.443561E-02
-9.489305E-02
-2.856892E-02
-1.736207E-01
-2.604276E-01
-2.372465E-01
-1.204453E-01
-1.955395E-01
2.442637E-02
-5.782366E-01
-6.176908E-01
-3.938338E-02
-3.471176E-01
-3.715939E-01
-1.310165E-01
1.119330E-01
-2.397431E-03
5.077483E-02
4.689456E-01
6.396918E-02
-1.646364E-01
-1.697250E-01
-1.416127E-01
-2.068100E-01
-2.149880E-01
-3.231443E-01
-2.048169E-01
2.545933E-01
9.842062E-02
-2.075039E-01
-6.883129E-02
1.233665E-01
-2.968033E-01
1.619799E-02
-2.687358E-01
-2.332692E-01
-1.916696E-01
-1.048781E-01
1.388579E-03
-1.918780E-01
-1.987300E-02
1.487476E-01
-1.811029E-01
8.446271E-02
-2.367975E-01
-4.028796E-02
3.034413E-01
-3.136966E-01
-3.327327E-01
-3.775118E-01
-4.134015E-02
-1.974033E-01
-3.807287E-01
-1.156783E-01
8.833443E-03
-1.517962E-01
1.960050E-01
-1.125207E-01
-1.319576E-01
3.983066E-02
-8.183920E-02
2.186467E-01
2.221160E-01
-2.523634E-02
1.149211E-01
-5.706430E-02
-3.185791E-01
2.377666E-01
-4.343248E-01
-1.997416E-01
-1.836677E-01
5.573727E-02
1.400595E-01
-2.058800E-01
2.843987E-01
-6.327588E-02
1.855695E-01
1.886406E-01
-7.103469E-01
-5.104629E-01
-2.138417E-01
1.109899E-01
-4.500733E-01
1.534918E-01
-6.292293E-02
-2.146599E-01
2.674701E-01
1.603438E-01
-8.683054E-02
-1.810197E-01
-1.867005E-01
-3.630517E-01
5.978988E-02
4.361747E-01
1.685918E-01
9.710727E-03
-2.434518E-01
5.299885E-01
9.363704E-02
-3.147773E-01
1.427586E-01
-1.751479E-01
1.884711E-01
-3.651185E-01
-7.977036E-02
-2.192806E-01
-1.754792E-01
8.695317E-02
2.957640E-01
1.138417E-01
1.179800E-01
-2.720667E-01
-5.538537E-01
-4.321940E-01
-5.617814E-01
-3.528686E-01
-3.597500E-01
-6.902451E-01
-8.986193E-01
-1.020476E+00
-5.432157E-01
-4.596062E-01
-1.403401E+00
3.485127E+00
1.260099E+00
1.583508E+00
-1.227518E+00
-2.293669E+00
-2.421533E+00
-3.296315E-01
-1.605517E+00
-1.565330E+00
2.373936E-01
-1.994451E+00
2.997698E+00
-1.140317E+00
-1.353462E-01
1.723382E-01
7.825717E-01
-1.616864E+00
2.897973E-02
-2.835022E-01
2.893064E-01
-2.427087E-01
-1.499965E-01
4.421194E-01
-5.224653E-02
2.729115E-01
-1.151410E-01
-1.403320E-01
-1.075705E-01
-2.225199E-01
2.020109E-01
2.399424E-01
9.721505E-02
-3.098763E-02
1.946934E-01
4.699752E-02
-2.671293E-01
8.657489E-03
-2.271492E-01
-1.114713E-02
3.198126E-01
-2.058467E-01
7.605705E-02
-1.078648E-01
-3.134169E-02
6.202747E-04
-5.311836E-02
2.139386E-01
-1.305758E-01
-1.121552E-01
2.305833E-01
3.830938E-02
-1.163616E-01
1.886947E-02
-1.968871E-01
2.262503E-01
-2.290262E-01
-6.256785E-02
8.131175E-02
1.239299E-01
1.006676E-01
-8.781448E-02
-3.119932E-02
8.380739E-02
-8.861548E-02
-3.547897E-02
-1.560965E-01
-2.076243E-02
-1.511561E-01
7.409385E-02
-1.224644E-01
-5.951734E-02
-2.580568E-01
-4.208763E-02
-8.996666E-02
-9.487461E-02
-7.026967E-02
-2.723752E-01
-5.064825E-02
-1.050355E-01
-1.438211E-01
-1.920662E-01
-1.877804E-01
-1.504893E-01
-1.214130E-01
-1.247150E-01
-2.873131E-01
1.775163E-01
-1.528553E-01
-2.133238E-01
-2.792898E-01
2.699190E-01
-3.490766E-01
1.572297E-01
6.580977E-02
-2.601644E-01
-2.026139E-01
2.794287E-01
-2.078529E-01
-2.143598E-01
1.656680E-01
-1.262993E-01
3.349991E-01
6.903462E-01
-4.775999E-02
-2.388172E-01
-2.455616E-01
-2.535804E-01
2.227395E-01
1.498318E-01
2.866197E-02
2.338506E-02
1.205895E-01
1.820627E-01
-1.528888E-01
1.767470E-01
2.833272E-02
1.930073E-01
3.051855E-02
7.234521E-02
1.263749E-01
-2.865669E-01
-7.887559E-02
-2.003507E-01
-1.587671E-01
2.372030E-01
-1.033768E-02
8.891531E-02
6.657709E-02
6.306334E-02
5.107000E-02
3.933550E-01
-3.508894E-01
-6.755153E-02
8.650296E-02
-3.383250E-01
1.405643E-01
-2.371269E-02
-3.453609E-01
-2.462615E-02
-9.170027E-02
-4.804584E-02
-2.792768E-02
-2.757780E-02
-5.778108E-02
-2.773856E-02
1.768854E-01
-1.890017E-01
5.793828E-02
-3.760706E-01
-1.756766E-01
-1.440029E-01
-2.474032E-01
-1.488981E-01
-3.147301E-01
-1.053863E-01
-1.610583E-01
4.900947E-02
-1.908610E-01
1.632674E-01
4.641593E-01
-2.475138E-01
-2.147198E-01
-2.027436E-01
3.540754E-02
-1.854228E-01
2.709026E-01
-5.023042E-02
9.359278E-02
4.532760E-02
-3.446924E-01
-1.104600E-01
-2.763511E-01
-1.854405E-01
-6.655748E-02
1.604766E-01
-1.312578E-01
9.957005E-03
-2.604166E-01
-1.305094E-01
8.842757E-02
-2.527010E-01
-1.625867E-01
-2.513506E-01
3.322433E-02
-1.994296E-01
-3.513783E-01
-2.061945E-01
1.000962E-01
1.261884E-01
-1.048276E-01
2.047069E-02
-1.348050E-01
2.055755E-02
-1.083422E-01
-2.641248E-01
4.775667E-01
-1.622231E-01
7.893391E-03
9.086934E-02
2.133782E-01
-2.664552E-01
-2.506978E-01
-2.347613E-01
-4.026331E-03
-2.371825E-01
6.904076E-02
3.248549E-01
2.322322E-01
-2.279081E-02
-1.577343E-01
-4.628369E-02
2.113299E-02
6.195255E-03
-2.097758E-01
-1.231154E-01
-1.293544E-01
-1.864906E-02
-6.407961E-02
-1.683319E-01
-1.531344E-01
-6.223528E-02
-2.572346E-01
-2.099118E-02
-2.054968E-01
-2.854941E-01
-2.419845E-01
-2.407595E-01
-1.676315E-01
-6.955943E-02
-2.343537E-02
-3.071944E-01
-2.099095E-01
-2.338420E-01
-2.516793E-01
-1.057218E-01
-1.898883E-01
-2.975798E-01
-2.816109E-01
-3.284041E-01
-2.792352E-01
1.832158E-01
-3.719580E-02
-1.057525E-01
-1.359562E-01
-2.957991E-02
-2.132241E-01
-2.084407E-01
-2.544234E-01
-3.172506E-01
-1.863541E-02
9.923296E-02
-1.336134E-01
-2.100962E-01
-2.612249E-01
-6.808424E-04
-1.897918E-01
-2.151670E-01
-3.492227E-01
-2.156894E-01
-2.252111E-01
-4.140816E-01
-7.097968E-02
1.370234E-01
-4.185802E-02
-3.959485E-02
-2.688287E-01
-1.593173E-01
-1.051429E-01
-1.545991E-01
-1.566666E-01
-1.392067E-01
-5.124977E-02
-2.310245E-01
-2.295762E-01
-2.465688E-01
-6.199617E-02
6.296101E-02
5.971195E-02
-4.525882E-02
-3.114712E-01
-1.776165E-01
-2.646076E-01
-2.527897E-01
-1.360174E-01
-2.906866E-01
1.032021E-01
-3.454143E-01
7.151686E-02
1.961895E-03
-1.864875E-01
1.151736E-01
-1.201172E-01
-2.701344E-02
-1.879785E-02
-1.855351E-01
-6.214555E-02
2.467873E-01
-4.767905E-02
-2.580165E-01
-1.094192E-01
2.077596E-02
-2.168778E-01
-8.894499E-02
-1.570655E-01
-4.796113E-03
-4.181864E-02
2.592575E-01
-5.871688E-02
5.840735E-02
3.248911E-01
1.228266E-01
-7.490609E-02
-3.290730E-01
-3.994090E-01
-7.285283E-02
-8.272818E-02
7.409605E-02
-3.832034E-01
8.786475E-03
1.158455E-01
-1.922068E-01
7.618208E-01
-3.060121E-01
-2.946701E-01
-1.636572E-02
-2.761769E-01
3.354272E-01
-1.906096E-01
-4.202869E-02
-8.849292E-02
5.369887E-02
-6.216836E-03
-2.191495E-01
-2.373070E-01
-4.344833E-01
-2.356577E-01
-2.728590E-01
-3.319401E-01
9.642277E-02
-1.340226E-01
2.610148E-01
-2.084396E-01
-1.623440E-02
-6.573889E-02
1.340942E-01
7.486202E-02
-2.979629E-01
-2.874440E-01
2.050859E-02
-3.290339E-02
1.037872E-01
-6.745331E-02
-2.761233E-01
1.073212E-01
8.533698E-02
1.580710E-02
-1.354874E-01
-5.772037E-02
-2.539400E-02
1.513936E-01
-2.605656E-01
1.178226E-01
-1.959185E-01
4.140030E-02
3.707751E-02
-2.637464E-01
-1.802642E-01
-1.113841E-01
-2.285433E-01
1.127625E-01
-1.346157E-01
-7.814781E-02
-7.734675E-02
-1.343306E-03
-3.183929E-02
-1.629905E-01
-1.802898E-01
-2.161176E-01
-2.901085E-02
-2.112499E-01
-2.731702E-01
-1.589460E-01
-3.056576E-02
-1.710528E-01
-2.142470E-01
-1.731783E-01
3.248950E-02
-1.303394E-01
-3.064176E-02
-7.213906E-02
6.976040E-02
-8.904324E-02
-1.442147E-01
-7.336676E-02
-8.560607E-02
-2.445325E-01
-1.946843E-01
2.529624E-02
-1.828291E-01
-1.985337E-01
-1.100011E-02
-3.563977E-02
-1.124230E-01
-7.394045E-02
-9.267326E-02
-3.078569E-01
-2.882831E-02
1.022866E-01
-1.394142E-01
-2.045530E-01
-1.455888E-01
7.281236E-02
2.471734E-01
-1.636566E-01
-6.127945E-01
-2.311905E-01
1.709344E-01
-2.623547E-01
-2.529770E-04
-5.494922E-01
